{"ip":0,"fr":60,"v":"5.1.20","assets":[],"layers":[{"ty":4,"nm":"tym","ip":0,"st":0,"ind":12,"hix":1,"ks":{"o":{"a":1,"k":[{"t":0,"s":[0],"e":[0],"i":{"x":[0.515],"y":[0.955]},"o":{"x":[0.455],"y":[0.03]}},{"t":602,"s":[0],"e":[100],"i":{"x":[0.515],"y":[0.955]},"o":{"x":[0.455],"y":[0.03]}},{"t":604,"s":[100],"e":[100],"i":{"x":[0.515],"y":[0.955]},"o":{"x":[0.455],"y":[0.03]}},{"t":661}]},"or":{"a":0,"k":[0,0,0]},"a":{"a":0,"k":[26.5,25,0]},"p":{"s":true,"x":{"a":1,"k":[{"t":0,"s":[400.6000061035156],"e":[400.099],"i":{"x":[0.515],"y":[0.955]},"o":{"x":[0.455],"y":[0.03]}},{"t":600,"s":[400.099],"e":[408.0995],"i":{"x":[0.515],"y":[0.955]},"o":{"x":[0.455],"y":[0.03]}},{"t":603,"s":[408.0995],"e":[412.1],"i":{"x":[0.515],"y":[0.955]},"o":{"x":[0.455],"y":[0.03]}},{"t":661,"s":[412.1],"e":[414.6005004637195],"i":{"x":[0.515],"y":[0.955]},"o":{"x":[0.455],"y":[0.03]}},{"t":720,"s":[414.6005004637195],"e":[412.59999929318235],"i":{"x":[0.515],"y":[0.955]},"o":{"x":[0.455],"y":[0.03]}},{"t":781,"s":[412.59999929318235],"e":[416.09999956127166],"i":{"x":[0.515],"y":[0.955]},"o":{"x":[0.455],"y":[0.03]}},{"t":839,"s":[416.09999956127166],"e":[413.09950014310476],"i":{"x":[0.515],"y":[0.955]},"o":{"x":[0.455],"y":[0.03]}},{"t":890}]},"y":{"a":1,"k":[{"t":0,"s":[269],"e":[280.077],"i":{"x":[0.515],"y":[0.955]},"o":{"x":[0.455],"y":[0.03]}},{"t":600,"s":[280.077],"e":[273.077],"i":{"x":[0.515],"y":[0.955]},"o":{"x":[0.455],"y":[0.03]}},{"t":603,"s":[273.077],"e":[266],"i":{"x":[0.515],"y":[0.955]},"o":{"x":[0.455],"y":[0.03]}},{"t":618,"s":[266],"e":[251],"i":{"x":[0.515],"y":[0.955]},"o":{"x":[0.455],"y":[0.03]}},{"t":661,"s":[251],"e":[253.35800043747128],"i":{"x":[0.515],"y":[0.955]},"o":{"x":[0.455],"y":[0.03]}},{"t":720,"s":[253.35800043747128],"e":[251.47099933319092],"i":{"x":[0.515],"y":[0.955]},"o":{"x":[0.455],"y":[0.03]}},{"t":781,"s":[251.47099933319092],"e":[254.77299958610536],"i":{"x":[0.515],"y":[0.955]},"o":{"x":[0.455],"y":[0.03]}},{"t":839,"s":[254.77299958610536],"e":[251.94300013500452],"i":{"x":[0.515],"y":[0.955]},"o":{"x":[0.455],"y":[0.03]}},{"t":890}]}},"rx":{"a":0,"k":0},"ry":{"a":0,"k":0},"rz":{"a":0,"k":0},"s":{"a":1,"k":[{"t":0,"s":[100,100],"e":[71.7,71.7],"i":{"x":[0.515,0.515],"y":[0.955,0.955]},"o":{"x":[0.455,0.455],"y":[0.03,0.03]}},{"t":603,"s":[71.7,71.7],"e":[81.10000000000001,81.10000000000001],"i":{"x":[0.515,0.515],"y":[0.955,0.955]},"o":{"x":[0.455,0.455],"y":[0.03,0.03]}},{"t":720,"s":[81.10000000000001,81.10000000000001],"e":[73.6,73.6],"i":{"x":[0.515,0.515],"y":[0.955,0.955]},"o":{"x":[0.455,0.455],"y":[0.03,0.03]}},{"t":781,"s":[73.6,73.6],"e":[86.8,86.8],"i":{"x":[0.515,0.515],"y":[0.955,0.955]},"o":{"x":[0.455,0.455],"y":[0.03,0.03]}},{"t":839,"s":[86.8,86.8],"e":[75.5,75.5],"i":{"x":[0.515,0.515],"y":[0.955,0.955]},"o":{"x":[0.455,0.455],"y":[0.03,0.03]}},{"t":890}]}},"shapes":[{"ty":"gr","nm":"tym shape group","it":[{"ty":"sh","ks":{"a":0,"k":{"c":true,"v":[[6.21763,11],[10.7176,32]],"i":[[1.0181700000000005,-2.270530000000001],[-2.9903899999999988,-5.466100000000001]],"o":[[-1.80004,4.014099999999999],[5.7994,10.600499999999997]]}}},{"ty":"st","o":{"a":0,"k":0},"w":{"a":0,"k":0},"c":{"a":0,"k":[0,0,0,0]},"lc":3,"lj":1,"ml":1},{"ty":"fl","o":{"a":0,"k":100},"r":1,"c":{"a":0,"k":[0.9490196078431372,0.8,0.8,1]}},{"ty":"tr","o":{"a":0,"k":100},"a":{"a":0,"k":[0,0]},"s":{"a":0,"k":[100,100]},"p":{"a":0,"k":[0,0]},"r":{"a":0,"k":0}}]},{"ty":"gr","nm":"tym shape group","it":[{"ty":"sh","ks":{"a":0,"k":{"c":true,"v":[[25.4528,7.5703],[22.207,48]],"i":[[28.130399999999998,-20.761400000000002],[-35.703900000000004,-25.1321]],"o":[[-23.80261,-18.5758],[46.5234,-18.5757]]}}},{"ty":"sh","ks":{"a":0,"k":{"c":true,"v":[[6.21763,11],[10.7176,32]],"i":[[1.0181700000000005,-2.270530000000001],[-2.9903899999999988,-5.466100000000001]],"o":[[-1.80004,4.014099999999999],[5.7994,10.600499999999997]]}}},{"ty":"st","o":{"a":0,"k":0},"w":{"a":0,"k":0},"c":{"a":0,"k":[0,0,0,0]},"lc":3,"lj":1,"ml":1},{"ty":"fl","o":{"a":0,"k":100},"r":2,"c":{"a":0,"k":[0.9490196078431372,0.4235294117647059,0.4235294117647059,1]}},{"ty":"tr","o":{"a":0,"k":100},"a":{"a":0,"k":[0,0]},"s":{"a":0,"k":[100,100]},"p":{"a":0,"k":[0,0]},"r":{"a":0,"k":0}}]}],"op":910},{"ty":4,"nm":"boy-cloud","ip":0,"st":0,"ind":11,"hix":2,"ks":{"o":{"a":0,"k":100},"or":{"a":0,"k":[0,0,0]},"a":{"a":0,"k":[41.5,31.5,0]},"p":{"s":true,"x":{"a":1,"k":[{"t":0,"s":[508.5],"e":[499.00300000000004],"i":{"x":[0.515],"y":[0.955]},"o":{"x":[0.455],"y":[0.03]}},{"t":80,"s":[499.00300000000004],"e":[500.5],"i":{"x":[0.515],"y":[0.955]},"o":{"x":[0.455],"y":[0.03]}},{"t":81,"s":[500.5],"e":[491.5],"i":{"x":[0.515],"y":[0.955]},"o":{"x":[0.455],"y":[0.03]}},{"t":171,"s":[491.5],"e":[486.5],"i":{"x":[0.515],"y":[0.955]},"o":{"x":[0.455],"y":[0.03]}},{"t":254,"s":[486.5],"e":[489.4460001526108],"i":{"x":[0.515],"y":[0.955]},"o":{"x":[0.455],"y":[0.03]}},{"t":262,"s":[489.4460001526108],"e":[482.5],"i":{"x":[0.515],"y":[0.955]},"o":{"x":[0.455],"y":[0.03]}},{"t":352,"s":[482.5],"e":[485.5],"i":{"x":[0.515],"y":[0.955]},"o":{"x":[0.455],"y":[0.03]}},{"t":461,"s":[485.5],"e":[483.5],"i":{"x":[0.515],"y":[0.955]},"o":{"x":[0.455],"y":[0.03]}},{"t":550,"s":[483.5],"e":[486.5],"i":{"x":[0.515],"y":[0.955]},"o":{"x":[0.455],"y":[0.03]}},{"t":640,"s":[486.5],"e":[471.5],"i":{"x":[0.515],"y":[0.955]},"o":{"x":[0.455],"y":[0.03]}},{"t":740,"s":[471.5],"e":[446],"i":{"x":[0.515],"y":[0.955]},"o":{"x":[0.455],"y":[0.03]}},{"t":811,"s":[446],"e":[404.5],"i":{"x":[0.515],"y":[0.955]},"o":{"x":[0.455],"y":[0.03]}},{"t":868,"s":[404.5],"e":[381.0150146484375],"i":{"x":[0.515],"y":[0.955]},"o":{"x":[0.455],"y":[0.03]}},{"t":910}]},"y":{"a":1,"k":[{"t":0,"s":[84.47350311279297],"e":[89.61099999999999],"i":{"x":[0.515],"y":[0.955]},"o":{"x":[0.455],"y":[0.03]}},{"t":80,"s":[89.61099999999999],"e":[88.474],"i":{"x":[0.515],"y":[0.955]},"o":{"x":[0.455],"y":[0.03]}},{"t":81,"s":[88.474],"e":[78.474],"i":{"x":[0.515],"y":[0.955]},"o":{"x":[0.455],"y":[0.03]}},{"t":171,"s":[78.474],"e":[83.474],"i":{"x":[0.515],"y":[0.955]},"o":{"x":[0.455],"y":[0.03]}},{"t":254,"s":[83.474],"e":[81.13000011583709],"i":{"x":[0.515],"y":[0.955]},"o":{"x":[0.455],"y":[0.03]}},{"t":262,"s":[81.13000011583709],"e":[78.474],"i":{"x":[0.515],"y":[0.955]},"o":{"x":[0.455],"y":[0.03]}},{"t":352,"s":[78.474],"e":[87.474],"i":{"x":[0.515],"y":[0.955]},"o":{"x":[0.455],"y":[0.03]}},{"t":461,"s":[87.474],"e":[78.474],"i":{"x":[0.515],"y":[0.955]},"o":{"x":[0.455],"y":[0.03]}},{"t":550,"s":[78.474],"e":[86.474],"i":{"x":[0.515],"y":[0.955]},"o":{"x":[0.455],"y":[0.03]}},{"t":640,"s":[86.474],"e":[77.474],"i":{"x":[0.515],"y":[0.955]},"o":{"x":[0.455],"y":[0.03]}},{"t":740,"s":[77.474],"e":[80.47350311279297],"i":{"x":[0.515],"y":[0.955]},"o":{"x":[0.455],"y":[0.03]}},{"t":811,"s":[80.47350311279297],"e":[73.67350006103516],"i":{"x":[0.515],"y":[0.955]},"o":{"x":[0.455],"y":[0.03]}},{"t":868,"s":[73.67350006103516],"e":[83.62350463867188],"i":{"x":[0.515],"y":[0.955]},"o":{"x":[0.455],"y":[0.03]}},{"t":910}]}},"rx":{"a":0,"k":0},"ry":{"a":0,"k":0},"rz":{"a":0,"k":0},"s":{"a":1,"k":[{"t":0,"s":[100,100],"e":[103.60000000000001,103.60000000000001],"i":{"x":[0.515,0.515],"y":[0.955,0.955]},"o":{"x":[0.455,0.455],"y":[0.03,0.03]}},{"t":80,"s":[103.60000000000001,103.60000000000001],"e":[96.39999999999999,96.39999999999999],"i":{"x":[0.515,0.515],"y":[0.955,0.955]},"o":{"x":[0.455,0.455],"y":[0.03,0.03]}},{"t":262}]}},"shapes":[{"ty":"gr","nm":"boy-cloud shape group","it":[{"ty":"sh","ks":{"a":0,"k":{"c":true,"v":[[18.9105,12.2974],[16.4394,16.6292],[14.8234,22.6911],[14.9052,25.5377],[15.506,24.5816],[12.4511,26.0027],[7.51397,29.6536],[4.03577,34.676],[2.95829,38.6527],[2.88329,40.4464],[2.99259,41.7752],[3.04159,41.9351],[3.11605,41.9952],[3.17633,41.9208],[3.19389,41.7566],[3.20771,40.4404],[3.38598,38.9973],[3.23156,38.5901],[3.28987,38.236],[3.41325,38.0149],[3.53122,37.8051],[3.7419,37.4026],[3.83371,37.2562],[4.33501,35.9758],[4.50545,35.5295],[4.69785,35.2329],[4.79804,35.0459],[5.50874,33.8781],[6.13138,32.833],[6.47797,32.3216],[6.98037,31.6786],[7.30585,31.2901],[7.77028,30.8112],[8.08564,30.6192],[8.48748,30.3624],[9.04672,29.9612],[9.54433,29.5973],[9.60474,29.527],[10.2783,28.9449],[10.6684,28.761],[11.2031,28.4879],[11.2675,28.4168],[11.3352,28.356],[11.5955,28.313],[11.824,28.2742],[13.2424,27.5443],[13.9084,27.24],[14.2106,26.9693],[14.8271,26.623],[15.5211,26.2823],[16.0443,26.0484],[16.5212,25.8557],[16.4603,25.3864],[16.4232,24.4985],[16.4363,24.266],[16.5681,22.8546],[16.8207,21.1671],[16.9334,20.6265],[17.1457,19.8126],[17.5243,18.6679],[17.6419,18.3898],[18.1186,17.3454],[18.6019,16.283],[18.7019,15.9085],[18.9194,15.3351],[19.0355,15.1901],[19.263,14.8877],[19.3122,14.7702],[19.3682,14.646],[19.6662,14.23],[19.9501,13.8507],[20.338,13.3993],[20.6654,13.0615],[21.9038,11.9594],[22.413,11.4969],[22.8299,11.1171],[23.1247,10.9529],[23.3579,10.8303],[23.4606,10.6712],[23.5807,10.5179],[23.7404,10.4725],[23.8223,10.455],[23.8112,10.4396],[23.917,10.2956],[23.9857,10.2308],[24.3477,9.99646],[24.4987,9.89288],[24.665,9.77492],[24.7559,9.70544],[24.8016,9.66941],[24.8464,9.67058],[24.8859,9.67721],[24.9803,9.64823],[25.0061,9.62549],[25.0375,9.59935],[25.2457,9.52409],[25.4916,9.43714],[25.5694,9.38586],[25.6462,9.33677],[25.9433,9.26401],[26.1199,9.23344],[26.3207,9.22338],[26.3791,9.22818],[26.4229,9.20989],[26.4625,9.19228],[26.4655,9.19149],[26.7044,9.08241],[27.2624,8.87825],[27.3977,8.86944],[27.5692,8.85449],[27.9633,8.71074],[28.5388,8.55599],[28.7262,8.56676],[28.8314,8.57653],[28.8084,8.53358],[28.7483,8.46666],[28.5615,8.32674],[28.5509,8.28288],[28.592,8.17557],[28.8442,8.11781],[28.8902,8.14398],[29.024,8.18515],[29.0658,8.18137],[29.2143,8.18648],[29.2419,8.26645],[29.3042,8.40916],[29.3565,8.42006],[29.3789,8.42411],[29.3751,8.44825],[29.4658,8.54237],[29.5679,8.52197],[29.6641,8.51147],[29.6706,8.52384],[29.7884,8.50383],[29.9989,8.4665],[30.0677,8.45908],[30.3043,8.42438],[30.4965,8.37623],[30.8667,8.22275],[31.0151,8.15577],[30.9626,8.15136],[30.7857,8.0506],[30.6979,7.98428],[30.6344,7.89217],[30.6271,7.85954],[30.5853,7.85224],[30.5443,7.84654],[30.5007,7.71695],[30.5705,7.6139],[30.5094,7.54628],[30.6527,7.46948],[30.711,7.50152],[30.9702,7.54706],[31.0758,7.55572],[31.1357,7.66858],[31.1198,7.72698],[31.1118,7.7474],[31.1014,7.76395],[31.2368,7.85122],[31.3291,7.89206],[31.3446,7.90561],[31.3678,7.92351],[31.4825,7.94864],[31.5575,7.96099],[31.6138,7.99803],[31.6486,8.02962],[31.7939,8.05398],[31.8612,8.06014],[31.8742,8.06742],[32.1387,8.09784],[32.6035,8.15385],[33.3713,8.12928],[33.2319,7.41532],[33.3606,6.87417],[33.475,6.62265],[33.9752,5.78398],[34.0667,5.53966],[34.4398,5.06218],[34.8453,4.65102],[35.765,3.89033],[36.8924,3.26704],[37.4117,2.98826],[38.0244,2.7541],[38.178,2.7874],[38.2818,2.81553],[38.5092,2.73853],[39.0658,2.57067],[39.3048,2.50702],[39.8136,2.38745],[39.9813,2.35245],[39.9829,2.35211],[40.3261,2.28737],[40.4711,2.26253],[40.8451,2.20569],[41.0408,2.17955],[41.3669,2.14205],[41.8903,2.09557],[41.9678,2.0783],[42,2.0461],[41.9674,2.01396],[41.8894,1.99761],[41.3595,1.97674],[41.0273,1.97333],[40.8269,1.97476],[40.442,1.98575],[40.2921,1.99275],[39.9345,2.01645],[39.9324,2.01662],[39.7585,2.03149],[39.2234,2.09234],[38.937,2.13431],[38.7775,2.16059],[38.6912,2.1758],[36.7175,2.71039],[34.8571,3.62753],[33.2253,4.971],[32.0139,7.61288],[32.6035,6.91992],[22.3421,9.36724],[20.7509,10.5057],[19.3228,11.8405]],"i":[[0.1372,-0.15840000000000032],[0.6613000000000007,-1.5342000000000002],[0.11899999999999977,-2.1082],[-0.11260000000000048,-0.9497],[0,0],[0.9856999999999996,-0.5388000000000019],[1.4535299999999998,-1.4564000000000021],[0.8149799999999994,-1.8695000000000022],[0.1520100000000002,-1.3620000000000019],[-0.01719000000000026,-0.5969999999999942],[-0.06000000000000005,-0.4397999999999982],[-0.0230999999999999,-0.04119999999999635],[-0.024719999999999853,0.0027000000000043656],[-0.01424000000000003,0.04469999999999885],[0.002569999999999961,0.06050000000000466],[-0.028119999999999923,0.4368000000000052],[-0.08720000000000017,0.4764999999999944],[0.001120000000000232,0.20250000000000057],[-0.03970999999999991,0.10350000000000392],[-0.04298000000000002,0.06220000000000425],[-0.02992999999999979,0.08359999999999701],[-0.08283999999999958,0.13239999999999696],[-0.030819999999999848,0.05010000000000048],[-0.1879899999999992,0.4159000000000006],[-0.05903999999999954,0.12369999999999948],[-0.07235999999999976,0.09069999999999823],[-0.03369,0.06169999999999476],[-0.2542800000000005,0.3767999999999958],[-0.27761000000000013,0.4008000000000038],[-0.11193000000000008,0.16400000000000148],[-0.1700399999999993,0.17160000000000153],[-0.10580000000000034,0.13470000000000226],[-0.17591999999999963,0.11950000000000216],[-0.09938000000000002,0.056400000000000006],[-0.10309999999999953,0.08990000000000009],[-0.16867000000000054,0.10479999999999734],[-0.12015000000000065,0.13419999999999987],[-0.02256999999999998,0.026599999999998403],[-0.3574799999999989,0.21419999999999817],[-0.13030000000000008,0.05270000000000152],[-0.16439999999999877,0.12780000000000058],[-0.019099999999999895,0.024800000000002598],[-0.021900000000000475,0.0015000000000000568],[-0.10089999999999932,0.01880000000000237],[-0.07499999999999929,0.00999999999999801],[-0.47889999999999944,0.22710000000000008],[-0.21950000000000003,0.0964000000000027],[-0.11099999999999888,0.08479999999999777],[-0.2668999999999997,0.13049999999999784],[-0.2637999999999998,0.13360000000000127],[-0.17489999999999917,0.0691999999999986],[0,0],[0,0],[-0.010799999999999699,0.22820000000000107],[-0.005399999999998073,0.0815000000000019],[-0.08389999999999986,0.7213999999999992],[-0.0799999999999983,0.4295999999999971],[-0.03359999999999985,0.13860000000000028],[-0.08170000000000144,0.28719999999999857],[-0.10060000000000002,0.24760000000000204],[-0.042899999999999494,0.09799999999999898],[-0.20810000000000173,0.44510000000000005],[-0.13060000000000116,0.30519999999999925],[-0.024399999999999977,0.12750000000000128],[-0.14359999999999928,0.2032999999999987],[-0.04240000000000066,0.04970000000000141],[-0.06450000000000244,0.11350000000000016],[-0.013300000000000978,0.03859999999999886],[-0.026700000000001722,0.04029999999999845],[-0.0934999999999988,0.12319999999999887],[-0.05749999999999744,0.08810000000000073],[-0.14560000000000173,0.14679999999999893],[-0.10120000000000218,0.11350000000000016],[-0.5010000000000012,0.3658000000000001],[-0.18370000000000175,0.18149999999999977],[-0.1742999999999988,0.14339999999999975],[-0.0931999999999995,0.0387000000000004],[-0.06780000000000186,0.05500000000000149],[-0.021100000000000563,0.05389999999999873],[-0.07390000000000185,0.03690000000000104],[-0.06540000000000035,0.013799999999999812],[-0.028199999999998226,0.006099999999999994],[0.002500000000001279,0.00429999999999886],[-0.0619000000000014,0.05599999999999916],[-0.019300000000001205,0.02009999999999934],[-0.12879999999999825,0.06543999999999883],[-0.0522999999999989,0.040739999999999554],[-0.07000000000000028,0.04251999999999967],[-0.023099999999999454,0.020509999999999806],[-0.014700000000001268,0.00855000000000139],[-0.016899999999999693,-0.004550000000000054],[-0.014099999999999113,0.0002099999999991553],[-0.023399999999998755,0.01562000000000019],[-0.007500000000000284,0.00774000000000008],[-0.014000000000002899,0.008119999999999905],[-0.07349999999999923,0.019110000000001293],[-0.08279999999999887,0.04550000000000054],[-0.025600000000000733,0.018170000000001352],[-0.023800000000001376,0.011689999999999756],[-0.09590000000000032,0.011689999999999756],[-0.052600000000001756,0.01576999999999984],[-0.04369999999999763,-0.008169999999999789],[-0.01710000000000278,0.00295000000000023],[-0.014399999999998414,0.006130000000000635],[-0.013499999999996959,0.0038199999999992684],[-0.0009999999999976694,0.000280000000000058],[-0.07920000000000016,0.03653000000000084],[-0.19669999999999987,0.042340000000001154],[-0.04680000000000106,-0.00026000000000081513],[-0.05549999999999855,0.015850000000000364],[-0.13090000000000046,0.05194999999999972],[-0.1900999999999975,0.005169999999999675],[-0.06269999999999953,-0.006389999999999674],[-0.035199999999999676,-0.002489999999999881],[0.006199999999999761,0.013539999999998997],[0.03640000000000043,0.015140000000000597],[0.0005000000000023874,0.05227000000000004],[0.005400000000001626,0.01487000000000016],[-0.06840000000000046,0.03186],[-0.08579999999999899,-0.015100000000000335],[-0.014399999999998414,-0.012060000000001736],[-0.07750000000000057,0.006079999999998975],[-0.014699999999997715,0.0014500000000001734],[-0.026700000000001722,-0.016759999999999664],[0.0015999999999998238,-0.03264000000000067],[-0.06670000000000087,-0.049770000000000536],[-0.016799999999999926,-0.00047999999999959186],[-0.00140000000000029,-0.003370000000000317],[0.0030999999999998806,-0.011319999999999553],[-0.11990000000000123,0.015409999999999258],[-0.03300000000000125,0.007659999999999556],[-0.0070000000000014495,-0.009939999999998506],[-0.0017999999999993577,-0.004400000000000404],[-0.039400000000000546,0.006559999999998567],[-0.08990000000000009,0.009550000000000836],[-0.02389999999999759,0.002649999999999153],[-0.07750000000000057,0.010970000000000368],[-0.06770000000000209,0.02073999999999998],[-0.11670000000000158,0.05494000000000021],[-0.050200000000000244,0.02102999999999966],[0.014100000000002666,0.0024599999999992406],[0.03850000000000264,0.04028000000000098],[0.03790000000000049,0.014339999999999797],[-0.0024999999999977263,0.028049999999999464],[0.009500000000002728,0.00617999999999963],[0.01729999999999876,0.0011799999999997368],[0.010200000000001097,0.0035999999999996035],[-0.0481999999999978,0.05109999999999992],[-0.012000000000000455,0.04194000000000031],[0.06500000000000128,0.01127999999999929],[-0.047999999999998266,0.025450000000000195],[-0.022599999999997067,-0.020310000000000272],[-0.09629999999999939,-0.0045799999999998064],[-0.022200000000001552,-0.0045999999999999375],[0.02710000000000079,-0.04121000000000041],[-0.012600000000002609,-0.014669999999999739],[0.006700000000002149,-0.007139999999999702],[-0.00010000000000331966,-0.005410000000000359],[-0.06459999999999866,-0.023309999999999498],[-0.019899999999999807,-0.014590000000000103],[-0.0045000000000001705,-0.004490000000000549],[-0.009899999999998244,-0.00511000000000017],[-0.04830000000000112,-0.00710999999999995],[-0.024499999999999744,-0.004849999999999355],[-0.012600000000002609,-0.015699999999999825],[-0.01659999999999684,-0.009050000000000225],[-0.0555000000000021,-0.00397999999999854],[-0.019700000000000273,-0.002660000000000551],[-0.0009999999999976694,-0.0036400000000007537],[-0.08550000000000324,-0.010609999999999786],[-0.15609999999999502,-0.016280000000000072],[0,0],[0,0],[-0.08149999999999835,0.26595999999999975],[-0.05000000000000426,0.08516000000000012],[-0.19870000000000232,0.26988000000000056],[-0.04860000000000042,0.09020000000000028],[-0.15820000000000078,0.16520000000000046],[-0.15380000000000393,0.15681000000000012],[-0.3616000000000028,0.24036000000000035],[-0.3252000000000024,0.14570999999999978],[-0.165300000000002,0.09297000000000022],[-0.15679999999999694,-0.00829000000000013],[-0.05089999999999861,-0.015279999999999738],[-0.03279999999999461,-0.006269999999999776],[-0.07679999999999865,0.025120000000000253],[-0.2213000000000065,0.006000000000000227],[-0.0771000000000015,0.019930000000000003],[-0.16620000000000346,0.0358900000000002],[-0.05659999999999599,0.011409999999999698],[-0.0005999999999986017,0.00010999999999983245],[-0.10999999999999943,0.019629999999999814],[-0.04860000000000042,0.00804999999999989],[-0.12239999999999895,0.017169999999999686],[-0.0659999999999954,0.008360000000000145],[-0.10990000000000322,0.011410000000000142],[-0.177500000000002,0.012739999999999974],[-0.020599999999994623,0.009090000000000042],[0,0.011719999999999953],[0.020800000000001262,0.008999999999999897],[0.029199999999995896,0.0016499999999999293],[0.17600000000000193,0.003920000000000146],[0.10940000000000083,-0.0000700000000000145],[0.0659999999999954,-0.0008600000000000829],[0.12689999999999912,-0.005319999999999991],[0.04970000000000141,-0.002569999999999961],[0.11809999999999832,-0.009360000000000035],[0.0007000000000019213,-0.00005999999999994898],[0.057200000000001694,-0.005229999999999624],[0.17719999999999914,-0.023909999999999876],[0.09710000000000463,-0.015440000000000342],[0.052199999999999136,-0.00890000000000013],[0.028900000000000148,-0.0052000000000003155],[0.6456999999999979,-0.24014999999999986],[0.5874999999999986,-0.3723900000000002],[0.48980000000000246,-0.52834],[-0.0218999999999987,-1.3127299999999993],[0,0],[3.110500000000002,-1.9405100000000006],[0.5015000000000001,-0.41139999999999866],[0.4497,-0.47830000000000084]],"o":[[-1.1163999999999987,1.2919],[-0.8206999999999987,1.9072999999999993],[-0.052199999999999136,0.9435000000000002],[0,0],[-1.0462000000000007,0.41029999999999944],[-1.8010000000000002,0.9841999999999977],[-1.4491099999999992,1.4504999999999981],[-0.5549700000000004,1.2695000000000007],[-0.0668599999999997,0.596899999999998],[0.012859999999999872,0.4451999999999998],[0.00837000000000021,0.06110000000000326],[0.023130000000000095,0.041200000000003456],[0.024739999999999984,-0.0027999999999934744],[0.014189999999999703,-0.04469999999999885],[-0.01913000000000009,-0.4399000000000015],[0.031200000000000117,-0.48559999999999803],[-0.0907300000000002,-0.08900000000000574],[-0.0005299999999999194,-0.10369999999999635],[0.035559999999999814,-0.09279999999999688],[0.045009999999999994,-0.06519999999999726],[0.05094000000000021,-0.14210000000000633],[0.030230000000000423,-0.04840000000000089],[0.14497000000000027,-0.4356000000000009],[0.055330000000000545,-0.16810000000000258],[0.05320999999999998,-0.11149999999999949],[0.03312999999999988,-0.0630999999999986],[0.21818999999999988,-0.4002000000000052],[0.16328999999999994,-0.3172000000000068],[0.11878000000000011,-0.1711999999999989],[0.16514000000000006,-0.24229999999999308],[0.11419000000000068,-0.11540000000000106],[0.14093,-0.17980000000000018],[0.10934000000000044,-0.0738999999999983],[0.15798999999999985,-0.08960000000000079],[0.1950099999999999,-0.17010000000000147],[0.20362999999999865,-0.12650000000000006],[0.018189999999998818,-0.020299999999998875],[0.11737000000000108,-0.1387999999999998],[0.1274999999999995,-0.07639999999999958],[0.19120000000000026,-0.07760000000000034],[0.02450000000000152,-0.01899999999999835],[0.02430000000000021,-0.03159999999999741],[0.06449999999999889,-0.0045999999999999375],[0.07440000000000069,-0.01419999999999888],[0.46640000000000015,-0.2602000000000011],[0.21870000000000012,-0.1036999999999999],[0.09259999999999913,-0.09450000000000003],[0.1465000000000014,-0.11139999999999972],[0.19669999999999987,-0.09609999999999985],[0.1706000000000003,-0.08619999999999806],[0,0],[0,0],[-0.041799999999998505,-0.3329999999999984],[0.0033999999999991815,-0.07509999999999906],[0.02230000000000132,-0.30819999999999936],[0.08149999999999835,-0.6796000000000006],[0.04070000000000107,-0.2187000000000019],[0.05690000000000239,-0.23440000000000083],[0.12689999999999912,-0.450800000000001],[0.035599999999998744,-0.08840000000000003],[0.11939999999999884,-0.2718000000000025],[0.2201999999999984,-0.46690000000000254],[0.05349999999999966,-0.12390000000000256],[0.03509999999999991,-0.18120000000000047],[0.033500000000000085,-0.04740000000000144],[0.07789999999999964,-0.09149999999999991],[0.0224999999999973,-0.039699999999999847],[0.014699999999997715,-0.04230000000000089],[0.09969999999999857,-0.15020000000000167],[0.12109999999999843,-0.15960000000000107],[0.10320000000000107,-0.15779999999999994],[0.11089999999999733,-0.11180000000000057],[0.29029999999999845,-0.32720000000000127],[0.18819999999999837,-0.13750000000000107],[0.11270000000000024,-0.11120000000000019],[0.0987000000000009,-0.08110000000000106],[0.08569999999999922,-0.03549999999999898],[0.05979999999999919,-0.04870000000000019],[0.023500000000002075,-0.05990000000000073],[0.03930000000000078,-0.019499999999998963],[0.025900000000000034,-0.005399999999999849],[-0.004899999999999238,-0.005599999999999383],[-0.017900000000000915,-0.030300000000000438],[0.024699999999999278,-0.022500000000000853],[0.07089999999999819,-0.07450000000000045],[0.054400000000001114,-0.027760000000000673],[0.04510000000000147,-0.03552999999999962],[0.03989999999999938,-0.024229999999999308],[0.01670000000000016,-0.014849999999999142],[0.01279999999999859,-0.0073899999999991195],[0.012199999999999989,0.0032900000000015694],[0.03359999999999985,-0.0005400000000008731],[0.010699999999999932,-0.007220000000000226],[0.00870000000000104,-0.009009999999999962],[0.06419999999999959,-0.03725000000000023],[0.08170000000000144,-0.021389999999998466],[0.026000000000003354,-0.014299999999998647],[0.026799999999997937,-0.01901999999999937],[0.09710000000000107,-0.04745999999999917],[0.06370000000000076,-0.007780000000000342],[0.09689999999999799,-0.029040000000000177],[0.022700000000000387,0.004209999999998715],[0.014599999999997948,-0.005979999999999208],[0.012800000000002143,-0.006790000000000518],[0.0010000000000012221,-0.0003000000000010772],[0.08070000000000022,-0.035339999999999705],[0.17680000000000007,-0.08167999999999864],[0.042500000000000426,-0.009149999999999991],[0.05729999999999791,0.00030999999999892225],[0.13240000000000052,-0.037789999999999324],[0.2002999999999986,-0.0789099999999987],[0.062300000000000466,-0.0016199999999990666],[0.034900000000000375,0.003569999999999851],[-0.010099999999997777,-0.014900000000000801],[-0.012699999999998823,-0.02789000000000108],[-0.08600000000000207,-0.035809999999999675],[-0.00009999999999976694,-0.014189999999999259],[-0.013399999999997192,-0.03729000000000049],[0.046100000000002694,-0.02151000000000103],[0.018599999999999284,0.003269999999998774],[0.025800000000000267,0.02167999999999992],[0.012999999999998124,-0.001020000000000465],[0.05910000000000082,-0.005939999999998946],[0.03059999999999974,0.019320000000000448],[-0.002100000000002211,0.04252999999999929],[0.013199999999997658,0.009840000000000515],[0.011900000000000688,0.00034000000000133923],[0.0015999999999998238,0.003869999999999152],[-0.010699999999999932,0.040010000000000545],[0.03249999999999886,-0.004129999999999967],[0.04859999999999687,-0.01127999999999929],[0.002599999999997493,0.0037800000000007827],[0.03920000000000101,-0.00677999999999912],[0.04899999999999949,-0.019540000000001],[0.021800000000002484,-0.00230999999999959],[0.07840000000000202,-0.011990000000000833],[0.06029999999999802,-0.01191999999999993],[0.13569999999999993,-0.04154999999999909],[0.04919999999999902,-0.023149999999999338],[-0.020199999999999108,-0.0007300000000007856],[-0.09679999999999822,-0.016820000000000945],[-0.02559999999999718,-0.02675999999999945],[-0.06930000000000192,-0.026220000000000354],[0.001300000000000523,-0.01454999999999984],[-0.007699999999999818,-0.004959999999999631],[-0.015100000000000335,-0.0010300000000000864],[-0.12429999999999808,-0.04351000000000038],[0.02650000000000219,-0.02815999999999974],[0.009600000000002495,-0.04410999999999987],[0.04749999999999943,-0.025750000000000384],[0.019700000000000273,-0.000280000000000058],[0.040500000000001535,0.03622999999999976],[0.04450000000000287,0.002080000000000304],[0.11799999999999855,0.024630000000000152],[-0.014900000000000801,0.0226999999999995],[0.005399999999998073,0.006279999999999397],[-0.005199999999998539,0.005519999999999747],[0.0010999999999974364,0.03929999999999989],[0.03710000000000235,0.01333000000000073],[0.006099999999999994,0.004450000000000287],[0.006699999999998596,0.006549999999999834],[0.023500000000002075,0.01161000000000012],[0.024699999999999278,0.003649999999999487],[0.03170000000000073,0.006289999999999907],[0.008899999999997021,0.011110000000000397],[0.030100000000000904,0.016370000000000218],[0.024100000000000676,0.00172000000000061],[0.008099999999998886,0.0010899999999995913],[0.09140000000000015,0.009439999999999671],[0.15789999999999793,0.019600000000000506],[0,0],[0,0],[0.013599999999996726,-0.06987000000000076],[0.02459999999999951,-0.08180999999999994],[0.12839999999999918,-0.2857000000000003],[0.01379999999999626,-0.07295999999999925],[0.08859999999999957,-0.1660699999999995],[0.11560000000000059,-0.12061999999999973],[0.2605000000000004,-0.26485999999999965],[0.36059999999999803,-0.24143000000000026],[0.17269999999999897,-0.07851000000000008],[0.23589999999999378,-0.13240000000000007],[0.05019999999999669,0.002569999999999961],[0.0367999999999995,0.01075000000000026],[0.07480000000000331,-0.02624000000000004],[0.13110000000000355,-0.07191999999999998],[0.08149999999999835,-0.022449999999999637],[0.1676000000000002,-0.04298999999999964],[0.054999999999999716,-0.0118999999999998],[0.0005000000000023874,-0.00011000000000027654],[0.11299999999999955,-0.022870000000000168],[0.04810000000000514,-0.008500000000000174],[0.12299999999999756,-0.020420000000000105],[0.0642999999999958,-0.009079999999999977],[0.10710000000000264,-0.013549999999999951],[0.17300000000000182,-0.018249999999999655],[0.028999999999996362,-0.0020999999999999908],[0.020600000000001728,-0.009120000000000239],[0,-0.011730000000000018],[-0.020699999999997942,-0.008970000000000145],[-0.17889999999999873,-0.0099800000000001],[-0.1115999999999957,-0.0023100000000000342],[-0.06749999999999545,0.000040000000000040004],[-0.1255000000000024,0.0017099999999998783],[-0.05019999999999669,0.0020900000000001473],[-0.11430000000000007,0.005730000000000013],[-0.0007000000000019213,0.00005999999999994898],[-0.05859999999999843,0.0046599999999998865],[-0.1739999999999995,0.015850000000000364],[-0.09159999999999968,0.01208000000000009],[-0.05389999999999873,0.008559999999999679],[-0.0286000000000044,0.004910000000000192],[-0.6692000000000036,0.11992000000000003],[-0.6426999999999978,0.23884000000000016],[-0.5883000000000038,0.3734599999999997],[-0.5732999999999961,0.6908799999999999],[0,0],[-3.4816999999999965,-0.14578000000000024],[-0.5479999999999983,0.33957000000000015],[-0.5071000000000012,0.4159000000000006],[-0.13610000000000255,0.14470000000000027]]}}},{"ty":"st","o":{"a":0,"k":0},"w":{"a":0,"k":0},"c":{"a":0,"k":[0,0,0,0]},"lc":3,"lj":1,"ml":1},{"ty":"fl","o":{"a":0,"k":100},"r":1,"c":{"a":0,"k":[1,1,1,1]}},{"ty":"tr","o":{"a":0,"k":100},"a":{"a":0,"k":[0,0]},"s":{"a":0,"k":[100,100]},"p":{"a":0,"k":[0,0]},"r":{"a":0,"k":0}}]},{"ty":"gr","nm":"boy-cloud shape group","it":[{"ty":"sh","ks":{"a":0,"k":{"c":true,"v":[[49.8921,54.1614],[44.4349,56.1968],[37.2185,55.1864],[31.0068,51.5068],[29.4114,49.7823],[28.3147,48.1153],[26.921,49.7379],[23.3725,53.2344],[16.2167,55.1109],[10.9916,54.0831],[8.81919,53.1159],[7.30685,52.1625],[7.09741,52.0672],[6.93948,52.1065],[6.91622,52.2687],[7.04383,52.4696],[8.48676,53.673],[10.2484,54.7844],[10.9127,54.6157],[11.3741,54.7962],[11.6297,55.0605],[11.8864,55.3034],[12.415,55.7086],[12.6159,55.8759],[14.5409,56.4842],[15.2404,56.5721],[15.74,56.7444],[16.0524,56.7974],[18.1027,56.9898],[19.9165,56.6929],[20.8115,56.4539],[21.9725,56.0837],[22.6666,55.7976],[23.5744,55.4083],[24.1286,55.3153],[24.832,55.1174],[25.7855,54.6554],[26.5819,54.1351],[26.6687,54.0178],[27.5919,53.0127],[28.1421,52.655],[28.8483,52.0613],[28.8997,51.9206],[28.9627,51.7959],[29.3436,51.6321],[26.923,51.589],[26.9253,51.6024],[26.9867,51.9728],[28.5163,53.917],[29.3025,54.7438],[29.9075,54.9674],[30.8275,55.5415],[31.8358,56.138],[33.7622,57.2538],[34.0631,57.4488],[36.0058,58.474],[38.5473,59.2776],[39.394,59.4511],[40.7008,59.6579],[42.5989,59.8097],[43.0785,59.8406],[44.9141,59.8162],[46.7511,59.4519],[47.293,59.1387],[48.1526,58.6925],[48.4407,58.6509],[49.0177,58.5176],[49.1861,58.4067],[49.3667,58.2909],[50.1084,58.0034],[50.7821,57.7006],[51.6265,57.321],[52.2917,57.0145],[54.5626,55.7439],[55.3796,55.0394],[55.9871,54.3972],[56.4202,54.1092],[56.7611,53.8732],[56.8512,53.5753],[56.9605,53.288],[57.1951,53.1831],[57.319,53.1363],[57.2906,53.1113],[57.369,52.832],[57.4361,52.7009],[57.8358,52.1911],[57.9854,51.9633],[58.1439,51.6964],[58.2222,51.5405],[58.2595,51.4599],[58.3295,51.4418],[58.3298,51.4418],[56.7457,51.5449],[56.753,51.6114],[56.8466,51.7281],[56.8971,51.7453],[56.956,51.7673],[57.1889,52.0035],[57.4755,52.2766],[57.6069,52.3346],[57.7345,52.3913],[58.0517,52.73],[58.2277,52.9388],[58.4008,53.2029],[58.4426,53.2896],[58.5069,53.3264],[58.5667,53.3577],[58.5705,53.3608],[58.9377,53.5356],[59.7431,53.9509],[59.8933,54.1015],[60.0928,54.282],[60.6982,54.5029],[61.5464,54.845],[61.7649,55.0422],[61.8863,55.1565],[61.9012,55.0621],[61.8952,54.8928],[61.8169,54.4828],[61.8506,54.3991],[62.0094,54.2558],[62.3578,54.3796],[62.386,54.4641],[62.5052,54.6481],[62.5589,54.676],[62.738,54.8062],[62.7007,54.9702],[62.6528,55.2738],[62.7129,55.3358],[62.7394,55.3611],[62.7127,55.401],[62.7531,55.6418],[62.9119,55.6856],[63.0546,55.7402],[63.0535,55.7675],[63.235,55.818],[63.5606,55.8961],[63.6635,55.9278],[64.0262,56.0112],[64.3436,56.0327],[64.9784,55.9264],[65.2285,55.8612],[65.1541,55.8305],[64.9506,55.5572],[64.8623,55.3883],[64.8251,55.181],[64.8333,55.1149],[64.7805,55.0805],[64.7282,55.0492],[64.7452,54.7799],[64.8955,54.617],[64.8552,54.4582],[65.0802,54.378],[65.1375,54.4656],[65.4489,54.6605],[65.5823,54.7168],[65.6131,54.9585],[65.5671,55.0668],[65.5476,55.1038],[65.5264,55.1323],[65.6756,55.3509],[65.7881,55.4617],[65.8047,55.4932],[65.8306,55.5358],[65.989,55.6206],[66.0956,55.6665],[66.1677,55.755],[66.2104,55.8265],[66.4219,55.9096],[66.522,55.9363],[66.5398,55.9533],[66.9342,56.0584],[69.008,56.18],[69.5166,56.1218],[71.1468,55.6928],[71.4848,55.4096],[72.3438,54.9699],[73.1282,54.533],[74.5893,53.4761],[76.04,52.2614],[76.5726,51.5881],[77.1832,50.8766],[77.4247,50.8346],[77.5961,50.8086],[77.802,50.5235],[78.2693,49.8275],[78.4589,49.5245],[78.8347,48.883],[78.9533,48.6687],[78.9544,48.6666],[79.1873,48.2279],[79.2804,48.0445],[79.5125,47.5692],[79.6325,47.3126],[79.8163,46.9008],[80.1001,46.2223],[80.1192,46.1108],[80.0822,46.0418],[80.0045,46.0526],[79.9258,46.1329],[79.5259,46.7419],[79.2736,47.1076],[79.1129,47.3347],[78.8067,47.7522],[78.6854,47.9119],[78.388,48.2936],[78.3862,48.2959],[78.2383,48.479],[77.7765,49.0258],[77.52,49.3137],[77.3764,49.4694],[77.2982,49.5531],[75.3301,51.3396],[73.1264,52.7008],[70.7432,53.5273],[58.6387,49.3804],[57.4415,48.2297],[56.1721,49.541],[54.3109,51.2889],[52.4765,52.6766],[50.5267,53.8431]],"i":[[0.22010000000000218,-0.10560000000000258],[1.9868999999999986,-0.26310000000000144],[2.274700000000003,0.7323999999999984],[1.7873000000000019,1.6905000000000001],[0.4981000000000009,0.616100000000003],[0,0],[0,0],[1.4009,-0.9063000000000017],[2.583400000000001,0.08979999999999677],[1.6954999999999991,0.6143000000000001],[0.7008099999999988,0.3767999999999958],[0.47831000000000046,0.35660000000000025],[0.06791999999999998,0.010800000000003251],[0.03373000000000026,-0.036599999999999966],[-0.019110000000000404,-0.06780000000000541],[-0.06247999999999987,-0.06119999999999948],[-0.5093000000000005,-0.3686000000000007],[-0.6120999999999999,-0.3365999999999971],[-0.2787999999999986,-0.046899999999993724],[-0.12680000000000113,-0.0916999999999959],[-0.0708000000000002,-0.08909999999999485],[-0.11190000000000033,-0.06210000000000093],[-0.17809999999999881,-0.15339999999999776],[-0.06949999999999967,-0.054999999999999716],[-0.6535000000000011,-0.1664999999999992],[-0.20069999999999943,-0.03849999999999909],[-0.15939999999999976,-0.07289999999999708],[-0.1045999999999978,-0.01670000000000016],[-0.6917999999999971,-0.018800000000005923],[-0.7181999999999995,0.13389999999999702],[-0.28449999999999775,0.09300000000000352],[-0.35689999999999955,0.08429999999999893],[-0.22749999999999915,0.11889999999999645],[-0.31370000000000076,0.0625],[-0.17379999999999995,0.028599999999997294],[-0.18440000000000012,0.10359999999999303],[-0.28249999999999886,0.12899999999999778],[-0.17210000000000036,0.21819999999999595],[-0.03200000000000003,0.04469999999999885],[-0.5029000000000003,0.40149999999999864],[-0.1866999999999983,0.11169999999999902],[-0.17299999999999827,0.26379999999999626],[-0.012000000000000455,0.04820000000000135],[-0.03470000000000084,0.009699999999995157],[-0.14699999999999847,0.07289999999999708],[0,0],[-0.0008000000000016882,-0.0045000000000001705],[-0.016899999999999693,-0.12219999999999942],[-0.5543000000000013,-0.6188000000000002],[-0.272199999999998,-0.26950000000000074],[-0.19729999999999848,-0.08840000000000003],[-0.37560000000000215,-0.24969999999999715],[-0.40149999999999864,-0.20339999999999492],[-0.4598000000000013,-0.2989999999999995],[-0.10549999999999926,-0.06749999999999545],[-1.0388999999999982,-0.4498999999999995],[-0.6687999999999974,-0.14789999999999992],[-0.2190000000000012,-0.04459999999999553],[-0.4690000000000012,-0.05559999999999832],[-0.4211999999999989,-0.027099999999997237],[-0.17129999999999512,-0.009599999999998943],[-0.7855999999999952,0.06989999999999696],[-0.5078000000000031,0.16169999999999618],[-0.16890000000000072,0.1261999999999972],[-0.3789999999999978,0.07819999999999538],[-0.10210000000000008,0.012300000000003308],[-0.18769999999999953,0.0840999999999994],[-0.0508000000000024,0.040500000000001535],[-0.07000000000000028,0.027499999999996305],[-0.2249000000000052,0.0887999999999991],[-0.1407999999999987,0.08489999999999753],[-0.30049999999999955,0.11990000000000123],[-0.20769999999999555,0.11990000000000123],[-0.8418000000000063,0.4870000000000019],[-0.2728000000000037,0.2920999999999978],[-0.24380000000000024,0.24780000000000513],[-0.14240000000000208,0.07229999999999848],[-0.0882000000000005,0.10600000000000165],[-0.004799999999995919,0.09850000000000136],[-0.0993000000000066,0.07490000000000663],[-0.09879999999999711,0.035799999999994725],[-0.0432000000000059,0.01729999999999876],[0.0069000000000016826,0.0071000000000012164],[-0.06269999999999953,0.113900000000001],[-0.017100000000006332,0.040500000000001535],[-0.14860000000000184,0.15400000000000347],[-0.04639999999999844,0.08770000000000522],[-0.07120000000000459,0.1010000000000062],[-0.016899999999999693,0.04449999999999932],[-0.01470000000000482,0.020800000000001262],[-0.03030000000000399,0],[-0.00009999999999621423,0],[0,0],[-0.006999999999997897,-0.02120000000000033],[-0.03740000000000521,-0.02039999999999509],[-0.016600000000003945,-0.003900000000001569],[-0.020400000000002194,-0.013199999999997658],[-0.07149999999999324,-0.08960000000000434],[-0.12479999999999336,-0.07250000000000512],[-0.04540000000000077,-0.017200000000002547],[-0.034099999999995134,-0.02130000000000365],[-0.08639999999999759,-0.12039999999999651],[-0.06340000000000146,-0.05320000000000391],[-0.024399999999999977,-0.07090000000000174],[-0.018900000000002137,-0.019800000000003593],[-0.02130000000000365,-0.011899999999997135],[-0.01719999999999544,-0.013300000000000978],[-0.001300000000000523,-0.0009999999999976694],[-0.12279999999999802,-0.054500000000004434],[-0.2556999999999974,-0.17859999999999587],[-0.04820000000000135,-0.05640000000000356],[-0.07939999999999969,-0.04099999999999682],[-0.20649999999999835,-0.0589999999999975],[-0.23379999999999512,-0.17539999999999623],[-0.07109999999999417,-0.06960000000000122],[-0.04169999999999874,-0.036599999999999966],[-0.006100000000003547,0.028799999999996828],[0.028999999999996362,0.05919999999999703],[-0.05459999999999354,0.08810000000000429],[-0.009300000000003195,0.030000000000001137],[-0.1109999999999971,-0.008600000000001273],[-0.084699999999998,-0.09890000000000043],[-0.005200000000002092,-0.033200000000000784],[-0.09860000000000468,-0.05380000000000251],[-0.018900000000002137,-0.009500000000002728],[-0.018700000000002603,-0.05119999999999436],[0.03170000000000073,-0.05649999999999977],[-0.04339999999999833,-0.14290000000000447],[-0.02209999999999468,-0.014499999999998181],[0.0009999999999976694,-0.007199999999997431],[0.014200000000002433,-0.017700000000004934],[-0.17910000000000537,-0.06930000000000547],[-0.05220000000000624,-0.011699999999997601],[-0.0015000000000000568,-0.023299999999998988],[0.001100000000000989,-0.009399999999999409],[-0.060600000000000875,-0.016500000000000625],[-0.1343000000000032,-0.04269999999999641],[-0.035899999999998045,-0.010699999999999932],[-0.12130000000000507,-0.026299999999999102],[-0.11379999999999768,0.0015000000000000568],[-0.19959999999998956,0.05279999999999774],[-0.08289999999999509,0.020000000000003126],[0.019400000000004525,0.010799999999996146],[0.03360000000000696,0.0951999999999984],[0.045199999999994134,0.04569999999999652],[-0.019000000000005457,0.05250000000000199],[0.009500000000002728,0.016500000000000625],[0.022899999999992815,0.010799999999996146],[0.011799999999993815,0.012000000000000455],[-0.09309999999999263,0.07310000000000372],[-0.0391000000000048,0.07460000000000377],[0.07670000000000243,0.05300000000000438],[-0.07460000000000377,0.02729999999999677],[-0.01839999999999975,-0.04910000000000281],[-0.12279999999999802,-0.04549999999999699],[-0.026899999999997704,-0.016999999999995907],[0.05360000000000298,-0.07110000000000127],[-0.010699999999999932,-0.033200000000000784],[0.012100000000003774,-0.011499999999998067],[0.002200000000001978,-0.010600000000003718],[-0.08030000000000825,-0.06760000000000588],[-0.02240000000000464,-0.03509999999999991],[-0.004699999999999704,-0.01020000000000465],[-0.012100000000003774,-0.013200000000004763],[-0.06860000000000355,-0.028300000000001546],[-0.03459999999999752,-0.016399999999997306],[-0.013999999999995794,-0.03450000000000131],[-0.02230000000000132,-0.022200000000005105],[-0.08259999999999934,-0.02009999999999934],[-0.029200000000003,-0.009399999999999409],[-0.0006000000000057071,-0.0073999999999969646],[-0.1280000000000001,-0.0326999999999984],[-0.8485999999999905,0.15379999999999683],[-0.17629999999999768,0.011899999999997135],[-0.5305999999999926,0.17970000000000397],[-0.1355000000000075,0.09090000000000487],[-0.318799999999996,0.15049999999999386],[-0.2787000000000006,0.18959999999999866],[-0.5163999999999902,0.3890999999999991],[-0.3761000000000081,0.3487000000000009],[-0.14819999999998856,0.22980000000000445],[-0.21890000000000498,0.08199999999999363],[-0.08500000000000796,0.008600000000001273],[-0.05130000000001189,0.013100000000001444],[-0.06810000000000116,0.09629999999999939],[-0.24989999999999668,0.1961999999999975],[-0.06109999999999616,0.09999999999999432],[-0.1221000000000032,0.21709999999999496],[-0.039500000000003865,0.07229999999999848],[-0.0004000000000132786,0.0006999999999948159],[-0.07119999999999038,0.13970000000000482],[-0.030900000000002592,0.06150000000000233],[-0.07550000000000523,0.159399999999998],[-0.03989999999998872,0.0864999999999938],[-0.06050000000000466,0.13870000000000005],[-0.09269999999999357,0.23029999999999973],[0.003199999999992542,0.03370000000000317],[0.020899999999997476,0.010500000000000398],[0.029100000000013893,-0.01719999999999544],[0.021700000000009823,-0.03399999999999892],[0.13440000000001362,-0.19839999999999947],[0.0875999999999948,-0.1255999999999986],[0.05340000000001055,-0.07439999999999714],[0.10249999999999204,-0.13640000000000185],[0.04049999999999443,-0.05280000000000484],[0.09949999999999193,-0.12469999999999715],[0.0005999999999914962,-0.000800000000005241],[0.049000000000006594,-0.059899999999998954],[0.16389999999999816,-0.18909999999999627],[0.08639999999999759,-0.09499999999999886],[0.04739999999999611,-0.05069999999999908],[0.026300000000006207,-0.02790000000000248],[0.7052000000000049,-0.5397999999999996],[0.7717999999999989,-0.37109999999999843],[0.813999999999993,-0.17830000000000013],[3.1970000000000027,3.045099999999998],[0,0],[0,0],[0.6476000000000042,-0.5448999999999984],[0.6296999999999997,-0.4253],[0.6763000000000048,-0.3551000000000002]],"o":[[-1.756299999999996,0.8391999999999982],[-2.467399999999998,0.322499999999998],[-2.2856000000000023,-0.7261999999999986],[-0.5676999999999985,-0.535899999999998],[0,0],[0,0],[-0.9703999999999979,1.3861999999999952],[-2.043099999999999,1.3371999999999957],[-1.754199999999999,-0.05570000000000164],[-0.7424999999999997,-0.2698000000000036],[-0.5258200000000013,-0.28350000000000364],[-0.06721000000000021,-0.05010000000000048],[-0.06791999999999998,-0.010699999999999932],[-0.033649999999999736,0.036599999999999966],[0.019110000000000404,0.06769999999999499],[0.44835000000000047,0.4380999999999986],[0.5638199999999998,0.40729999999999933],[0.1850000000000005,-0.13889999999999958],[0.14140000000000086,0.023500000000005627],[0.11500000000000021,0.08299999999999841],[0.07350000000000101,0.09280000000000399],[0.19100000000000072,0.10559999999999548],[0.06450000000000067,0.05570000000000164],[0.6242999999999999,0.23639999999999617],[0.2623999999999995,0.028100000000002012],[0.17970000000000041,0.03450000000000131],[0.1036999999999999,0.018700000000002603],[0.6738,0.10759999999999792],[0.5366999999999997,-0.07160000000000366],[0.31070000000000064,-0.05850000000000222],[0.4238999999999997,-0.13809999999999434],[0.23499999999999943,-0.055100000000003035],[0.30349999999999966,-0.15859999999999985],[0.1941999999999986,-0.03769999999999385],[0.27770000000000294,-0.046100000000002694],[0.34779999999999944,-0.19590000000000174],[0.3426000000000009,-0.15740000000000265],[0.026099999999999568,-0.033200000000000784],[0.17360000000000042,-0.24080000000000013],[0.1753,-0.13970000000000482],[0.2724000000000011,-0.16340000000000288],[0.026000000000003354,-0.03960000000000008],[0.01529999999999987,-0.0613000000000028],[0.09919999999999973,-0.02790000000000248],[0,0],[0.0007000000000019213,0.0045000000000001705],[0.021000000000000796,0.12049999999999983],[0.4659000000000013,0.6758000000000024],[0.25349999999999895,0.28300000000000125],[0.20550000000000068,0.06490000000000151],[0.2588000000000008,0.11619999999999919],[0.2768999999999977,0.18390000000000128],[0.7453000000000003,0.3807000000000045],[0.09729999999999706,0.06370000000000431],[0.40149999999999864,0.2518000000000029],[0.9853000000000023,0.42130000000000223],[0.3421999999999983,0.07560000000000144],[0.375,0.07670000000000243],[0.7325000000000017,0.08910000000000196],[0.1501999999999981,0.01010000000000133],[0.4714000000000027,0.025900000000000034],[0.8278999999999996,-0.07740000000000435],[0.20599999999999596,-0.0666000000000011],[0.24150000000000205,-0.17980000000000018],[0.08859999999999957,-0.018300000000003536],[0.18829999999999814,-0.0227999999999966],[0.0654000000000039,-0.029299999999999216],[0.055999999999997385,-0.04449999999999932],[0.26259999999999906,-0.10300000000000153],[0.2902999999999949,-0.11439999999999628],[0.2475999999999985,-0.14970000000000283],[0.23080000000000211,-0.09209999999999496],[0.5949999999999989,-0.34189999999999543],[0.3206999999999951,-0.18559999999999377],[0.16979999999999507,-0.1822000000000017],[0.1373000000000033,-0.13980000000000103],[0.13109999999999644,-0.06649999999999778],[0.07750000000000057,-0.09359999999999502],[0.00549999999999784,-0.10969999999999658],[0.05279999999999774,-0.03989999999999583],[0.03900000000000148,-0.014100000000006219],[-0.01190000000000424,-0.008899999999997021],[-0.04919999999999902,-0.05019999999999669],[0.02499999999999858,-0.04540000000000077],[0.06439999999999912,-0.14979999999999905],[0.06300000000000239,-0.06510000000000105],[0.041200000000003456,-0.07789999999999964],[0.04070000000000107,-0.057699999999996976],[0.012199999999999989,-0.03229999999999933],[0.012899999999994805,-0.018099999999996896],[0.00009999999999621423,0],[0,0],[0.00010000000000331966,0.021700000000002717],[0.01659999999999684,0.05109999999999815],[0.01729999999999876,0.009399999999999409],[0.019199999999997885,0.0045000000000001705],[0.09369999999999834,0.06020000000000181],[0.07870000000000488,0.09849999999999426],[0.03930000000000433,0.02289999999999992],[0.04739999999999611,0.018000000000000682],[0.13830000000000098,0.08650000000000091],[0.05750000000000455,0.08020000000000493],[0.11619999999999919,0.09749999999999659],[0.012600000000006162,0.0367999999999995],[0.02120000000000033,0.012500000000002842],[0.021000000000000796,0.008800000000000807],[0.001300000000000523,0.0009999999999976694],[0.12119999999999465,0.06400000000000006],[0.2762000000000029,0.1226999999999947],[0.05519999999999925,0.038500000000006196],[0.05889999999999418,0.06899999999999551],[0.18940000000000623,0.09780000000000655],[0.3113000000000028,0.08930000000000149],[0.07730000000000103,0.057900000000003615],[0.03960000000000008,0.038800000000001944],[0.002400000000001512,-0.03480000000000416],[0.012399999999999523,-0.05930000000000035],[-0.0688999999999993,-0.14000000000000057],[0.014800000000001035,-0.02400000000000091],[0.023499999999998522,-0.0753999999999948],[0.07509999999999906,0.006000000000000227],[0.01839999999999975,0.021599999999999397],[0.009399999999999409,0.05939999999999657],[0.016500000000000625,0.009000000000000341],[0.07549999999999812,0.037700000000000955],[0.021399999999999864,0.05910000000000082],[-0.04119999999999635,0.07350000000000279],[0.008699999999997488,0.028300000000001546],[0.01559999999999917,0.010199999999997544],[-0.001300000000000523,0.008200000000002206],[-0.04999999999999716,0.06229999999999336],[0.0484999999999971,0.018699999999995498],[0.07699999999999818,0.01740000000000208],[0.0005000000000023874,0.008800000000000807],[0.06040000000000134,0.017200000000002547],[0.08440000000000225,-0.0002999999999957481],[0.03260000000000218,0.010300000000000864],[0.12010000000000076,0.02909999999999968],[0.09779999999999234,0.014499999999998181],[0.22769999999999868,-0.0031999999999996476],[0.08420000000000982,-0.02230000000000132],[-0.028999999999996362,-0.009799999999998477],[-0.1325999999999965,-0.07410000000000139],[-0.02230000000000132,-0.06340000000000146],[-0.08270000000000266,-0.08370000000000033],[0.009899999999987585,-0.02729999999999677],[-0.007799999999988927,-0.013199999999997658],[-0.020000000000010232,-0.009399999999999409],[-0.14279999999999404,-0.14629999999999654],[0.05150000000000432,-0.040399999999998215],[0.03719999999999857,-0.0799999999999983],[0.07550000000000523,-0.026099999999999568],[0.025099999999994793,0.00829999999999842],[0.03269999999999129,0.08780000000000143],[0.05680000000000973,0.02120000000000033],[0.1430999999999898,0.09000000000000341],[-0.02940000000000964,0.03909999999999769],[0.004600000000010596,0.014200000000002433],[-0.009399999999999409,0.008899999999997021],[-0.015599999999992065,0.07699999999999818],[0.04590000000000316,0.03879999999999484],[0.006799999999998363,0.010699999999999932],[0.007000000000005002,0.015000000000000568],[0.02759999999999252,0.030000000000001137],[0.03509999999999991,0.014499999999998181],[0.044899999999998386,0.02120000000000033],[0.009900000000001796,0.024299999999996658],[0.04029999999998779,0.04019999999999868],[0.036000000000001364,0.008800000000000807],[0.011899999999997135,0.0037999999999982492],[0.13580000000000325,0.03719999999999857],[0.6398999999999972,0.16040000000000276],[0.15959999999999752,-0.029699999999998283],[0.5533999999999963,-0.1056999999999988],[0.08830000000000382,-0.09769999999999612],[0.25439999999998975,-0.17069999999999652],[0.2360000000000042,-0.11140000000000327],[0.4766999999999939,-0.32330000000000325],[0.5176000000000016,-0.3873000000000033],[0.20429999999998927,-0.1875],[0.21010000000001128,-0.32399999999999807],[0.06940000000000168,-0.025600000000004286],[0.06050000000000466,-0.006100000000003547],[0.06909999999999172,-0.09380000000000166],[0.08159999999999457,-0.20939999999999515],[0.06449999999999534,-0.10090000000000288],[0.13710000000000377,-0.22230000000000416],[0.039400000000000546,-0.07039999999999935],[0.00039999999999906777,-0.0007000000000019213],[0.07859999999999445,-0.14410000000000167],[0.03120000000001255,-0.06080000000000041],[0.07840000000000202,-0.15630000000000166],[0.03990000000000293,-0.08429999999999893],[0.06520000000000437,-0.1414000000000044],[0.09680000000000177,-0.2225999999999999],[0.015100000000003888,-0.03769999999999385],[-0.0031000000000034333,-0.033699999999996066],[-0.020899999999997476,-0.010600000000003718],[-0.02909999999999968,0.01729999999999876],[-0.13239999999998986,0.2079999999999984],[-0.08369999999999322,0.12379999999999569],[-0.0537000000000063,0.07690000000000197],[-0.10079999999999245,0.14059999999999917],[-0.04040000000000532,0.05369999999999919],[-0.09350000000000591,0.1214999999999975],[-0.0006000000000057071,0.0007000000000019213],[-0.04940000000000566,0.06189999999999429],[-0.15209999999999013,0.18650000000000233],[-0.08339999999999748,0.09510000000000218],[-0.04809999999999093,0.05290000000000106],[-0.02580000000000382,0.02779999999999916],[-0.6208999999999918,0.6597000000000008],[-0.6974000000000018,0.5319000000000003],[-0.7708000000000084,0.37069999999999936],[-4.402500000000003,0.9753000000000043],[0,0],[0,0],[-0.5962999999999994,0.6229000000000013],[-0.584699999999998,0.4918000000000049],[-0.6324000000000041,0.42719999999999914],[-0.20429999999999637,0.1069000000000031]]}}},{"ty":"st","o":{"a":0,"k":0},"w":{"a":0,"k":0},"c":{"a":0,"k":[0,0,0,0]},"lc":3,"lj":1,"ml":1},{"ty":"fl","o":{"a":0,"k":100},"r":1,"c":{"a":0,"k":[0.3843137254901961,0.5803921568627451,0.611764705882353,1]}},{"ty":"tr","o":{"a":0,"k":100},"a":{"a":0,"k":[0,0]},"s":{"a":0,"k":[100,100]},"p":{"a":0,"k":[0,0]},"r":{"a":0,"k":0}}]},{"ty":"gr","nm":"boy-cloud shape group","it":[{"ty":"sh","ks":{"a":0,"k":{"c":true,"v":[[52.2283,29.9585],[52.2001,29.9293]],"i":[[0.0069000000000016826,0.022500000000000853],[0.005900000000004013,0.00859999999999772]],"o":[[-0.001999999999995339,-0.006199999999999761],[-0.01279999999999859,0.026299999999999102]]}}},{"ty":"sh","ks":{"a":0,"k":{"c":true,"v":[[52.7568,27.7293],[52.7687,27.7658],[52.6854,27.7021],[52.6689,27.7159],[52.667,27.6774],[52.5535,27.6032],[52.2937,27.3955],[52.2484,27.4004],[52.1708,27.2977],[52.041,27.2599],[52.0072,27.1808],[51.8683,27.0971],[51.8304,27.0418],[51.7836,27.0282],[51.5264,26.8804],[51.467,26.8836],[51.4872,26.9333],[51.3313,26.8441],[51.2698,26.7754],[50.9716,26.6715],[50.8995,26.6195],[50.8772,26.629],[50.8292,26.5814],[50.7298,26.5779],[50.4882,26.4733],[50.5243,26.4614],[50.4567,26.4412],[50.3076,26.417],[50.2121,26.3646],[50.2578,26.3534],[50.1401,26.3264],[50.1131,26.3204],[50.095,26.3312],[50.0713,26.304],[49.9886,26.3022],[49.9543,26.2733],[49.9572,26.289],[50.0254,26.3536],[49.9673,26.3788],[49.891,26.3562],[49.8878,26.3203],[49.7859,26.2596],[49.8642,26.338],[49.7916,26.3458],[49.7422,26.2575],[49.7328,26.2296],[49.6874,26.2447],[49.6445,26.2316],[49.6322,26.2517],[49.6454,26.2174],[49.5622,26.2285],[49.5059,26.2726],[49.4801,26.2131],[49.3081,26.1823],[49.4261,26.2074],[49.3713,26.2811],[49.3182,26.2264],[49.2311,26.2561],[49.2853,26.242],[49.2202,26.2088],[49.2638,26.2008],[49.1997,26.2094],[49.1015,26.2423],[49.0236,26.1534],[49.1,26.1704],[49.08,26.2415],[48.84,26.2348],[48.6786,26.2117],[48.6868,26.1828],[48.5331,26.2104],[48.4919,26.192],[48.4765,26.207],[48.3304,26.2115],[48.3207,26.1836],[48.2412,26.2026],[48.2641,26.1386],[48.1885,26.1467],[48.0961,26.1871],[48.1969,26.1963],[48.0746,26.2111],[48.0465,26.2445],[48.0878,26.2025],[48.0402,26.1912],[48.0051,26.1778],[47.9174,26.2267],[47.9219,26.2052],[47.879,26.212],[47.8849,26.1893],[47.8838,26.2331],[47.8359,26.2633],[47.7839,26.2548],[47.6995,26.2085],[47.632,26.2515],[47.5518,26.247],[47.6175,26.2401],[47.5337,26.2505],[47.4276,26.2564],[47.3882,26.2681],[47.4747,26.2168],[47.3019,26.2493],[47.3662,26.2695],[47.0734,26.3385],[46.9952,26.3627],[46.9653,26.3948],[46.8098,26.4414],[46.7802,26.4678],[46.7574,26.4412],[46.603,26.5211],[46.6555,26.5308],[46.5159,26.5796],[46.5036,26.6011],[46.4297,26.61],[46.5794,26.5227],[46.5328,26.5265],[45.9947,26.7834],[46.3276,26.6421],[46.3936,26.6339],[46.099,26.7688],[46.1052,26.7902],[46.0044,26.8192],[46.0457,26.8459],[45.9653,26.8321],[45.7973,26.9369],[45.8614,26.8578],[45.6114,26.9927],[45.5938,26.9785],[45.5532,27.0324],[45.4791,27.0893],[45.5057,27.1057],[45.5287,27.0643],[45.5585,27.0591],[45.5875,27.0253],[45.6097,27.0368],[45.6625,27.007],[45.2892,27.2699],[45.3681,27.1939],[45.2507,27.3171],[44.6337,27.8497],[44.5847,27.9479],[44.6013,27.8755],[44.4383,28.0769],[44.3697,28.0936],[44.3467,28.1679],[44.3169,28.2026],[44.3231,28.2284],[44.3122,28.2684],[44.3315,28.2538],[44.3456,28.3085],[44.3397,28.2931],[44.3209,28.333],[44.2277,28.4873],[44.2551,28.5233],[44.2019,28.647],[44.2733,28.5369],[44.1529,28.6907],[44.1868,28.7325],[44.1265,28.7494],[44.0472,28.8592],[44.0577,28.8888],[44.0092,28.9882],[44.0369,28.9965],[44.001,29.0738],[43.9772,29.055],[43.9387,29.1364],[43.9382,29.0574],[43.8601,29.1866],[43.8857,29.1248],[43.8569,29.1884],[43.8149,29.1943],[43.7935,29.2282],[43.7789,29.1988],[43.7427,29.3035],[43.794,29.2556],[43.8118,29.3248],[43.8588,29.2785],[43.8616,29.331],[43.9636,29.1413],[43.9639,29.3383],[44.0234,29.316],[44.0069,29.3743],[44.0108,29.3777],[44.0108,29.3777],[44.0626,29.3104],[44.1255,29.3556],[44.167,29.3315],[44.1713,29.3972],[44.2181,29.3383],[44.2366,29.3852],[44.2853,29.3572],[44.3084,29.3766],[44.3343,29.3074],[44.3556,29.3235],[44.3686,29.3048],[44.4195,29.4078],[44.4899,29.422],[44.4786,29.4386],[44.5151,29.4734],[44.6073,29.4642],[44.6497,29.4205],[44.6572,29.4487],[44.7088,29.4351],[44.7002,29.4838],[44.7388,29.4953],[44.7395,29.524],[44.7888,29.4985],[44.8074,29.5151],[44.852,29.5053],[44.8496,29.5245],[44.893,29.5125],[44.9241,29.5207],[44.917,29.5883],[45.0038,29.5933],[45.0513,29.5759],[45.1073,29.5686],[45.1213,29.5909],[45.1387,29.5954],[45.209,29.4618],[45.2785,29.4331],[45.2559,29.4129],[45.3133,29.3735],[45.2827,29.3547],[45.3422,29.2566],[45.3698,29.2954],[45.3515,29.2415],[45.6606,28.8798],[45.5932,28.9698],[45.7377,28.8483],[45.7189,28.9009],[45.8207,28.8154],[45.8283,28.8418],[45.8314,28.8132],[45.8747,28.7703],[45.9002,28.782],[45.9691,28.7503],[45.9573,28.781],[45.908,28.788],[45.8778,28.8377],[45.9618,28.7962],[45.8903,28.8556],[45.8741,28.8809],[45.8654,28.9105],[45.8275,28.9414],[45.7848,28.9989],[45.873,28.9351],[45.8783,28.9501],[45.898,28.9294],[45.8852,28.922],[45.9323,28.8751],[46.0593,28.7664],[46.1127,28.734],[46.1146,28.6981],[46.1498,28.6885],[46.1907,28.679],[46.2757,28.6234],[46.2875,28.6326],[46.3637,28.5138],[46.3353,28.5517],[46.4466,28.5256],[46.3954,28.5703],[46.6365,28.4281],[46.6187,28.4138],[46.6711,28.3821],[46.6467,28.3716],[46.7141,28.3487],[46.6881,28.3803],[46.7043,28.3626],[46.6392,28.4181],[46.8556,28.3274],[46.8288,28.2936],[46.8588,28.3095],[46.9271,28.2742],[46.9723,28.2438],[46.9649,28.2632],[47.0476,28.1522],[46.9911,28.1866],[46.9112,28.2097],[46.9244,28.1313],[47.126,28.0465],[47.1626,28.0624],[47.138,28.0457],[47.5651,27.9085],[47.5684,27.8921],[47.6555,27.8888],[47.73,27.9011],[47.7719,27.8547],[47.9712,27.8033],[48.0878,27.7583],[48.128,27.8171],[48.2844,27.8152],[48.2939,27.7991],[48.3098,27.8173],[48.376,27.7811],[48.3988,27.77],[48.258,27.7679],[48.417,27.7557],[48.4144,27.7343],[48.4145,27.7343],[48.4903,27.7631],[48.4073,27.7702],[48.4135,27.7991],[48.5195,27.7817],[48.5251,27.796],[48.5566,27.7935],[48.4966,27.7517],[48.7265,27.7826],[48.7373,27.7665],[48.8255,27.7684],[48.8265,27.8114],[48.9364,27.8119],[48.8895,27.8256],[48.9344,27.8539],[48.9298,27.8554],[48.8743,27.8723],[48.9986,27.8637],[48.9596,27.8446],[49.0144,27.8498],[48.9484,27.7689],[49.0317,27.7964],[49.0469,27.8222],[49.067,27.8087],[49.1116,27.7968],[49.0544,27.8333],[49.1666,27.8645],[49.1822,27.8941],[49.4113,27.9114],[49.4184,27.8834],[49.4183,27.9196],[49.5265,27.9353],[49.5394,27.9009],[49.5192,27.8762],[49.6456,27.8903],[49.6341,27.91],[49.7126,27.9253],[49.6918,27.9503],[49.7453,27.9463],[49.7451,27.9686],[49.7897,27.9637],[49.8569,28.0086],[49.8745,28.0495],[49.9123,28.0814],[49.9723,28.0675],[49.9931,28.051],[49.9985,28.0697],[50.0627,28.0708],[50.1285,28.1114],[50.1472,28.1029],[50.1939,28.1413],[50.2278,28.1375],[50.2263,28.156],[50.0849,28.1074],[50.159,28.1602],[50.1667,28.1479],[50.237,28.2095],[50.2754,28.1843],[50.2521,28.1535],[50.2812,28.1564],[50.3395,28.0698],[50.3465,28.0877],[50.4249,28.124],[50.3931,28.1159],[50.4226,28.154],[50.4564,28.1431],[50.5268,28.1951],[50.4918,28.1964],[50.4726,28.169],[50.4397,28.199],[50.4262,28.1786],[50.4041,28.1931],[50.4201,28.1608],[50.3778,28.1832],[50.3523,28.1585],[50.3633,28.195],[50.4561,28.2474],[50.494,28.2905],[50.5326,28.3533],[50.6373,28.3203],[50.6316,28.3648],[50.6608,28.3856],[50.666,28.4185],[50.7137,28.4146],[50.7293,28.4579],[50.8744,28.5391],[50.8575,28.5019],[50.9078,28.4998],[50.9448,28.5518],[50.947,28.5686],[51.0244,28.6166],[50.9031,28.6237],[50.9535,28.7129],[50.9436,28.6742],[50.9233,28.6879],[50.9056,28.6536],[50.8727,28.6645],[50.9667,28.7371],[51.0104,28.7704],[51,28.7809],[51.1032,28.8595],[51.1212,28.837],[51.1099,28.8637],[51.3888,29.0779],[51.4334,29.1422],[51.534,29.2172],[51.5271,29.2399],[51.5432,29.2249],[51.7083,29.375],[51.6376,29.244],[51.6704,29.2605],[51.6993,29.3212],[51.7439,29.3132],[51.7996,29.3596],[52,29.5685],[51.9745,29.579],[52.0336,29.5739],[52.0985,29.6562],[52.0253,29.651],[52.0668,29.7152],[52.0982,29.7058],[52.0707,29.699],[52.116,29.7162],[52.1877,29.7713],[52.2096,29.7448],[52.2447,29.7748],[52.2871,29.782],[52.2682,29.7779],[52.3225,29.8589],[52.3677,29.8654],[52.4034,29.9241],[52.4793,30.0306],[52.5164,30.102],[52.5591,30.0968],[52.6254,30.1658],[52.6833,30.1345],[52.6453,30.0684],[52.7106,30.127],[52.7812,30.1212],[52.8337,30.1499],[52.8523,30.104],[52.9201,30.0967],[52.8703,30.0597],[52.9519,30.031],[52.962,30.0126],[52.9446,30.0808],[52.9685,30.0538],[53.0049,30.0806],[53.0211,29.9599],[53.0618,30.0422],[53.0443,29.9985],[53.0799,29.9909],[53.1094,29.9648],[53.1495,30.013],[53.1778,29.9516],[53.214,29.9443],[53.2264,29.909],[53.2079,29.8527],[53.279,29.8991],[53.2922,29.8808],[53.3703,29.8739],[53.3981,29.8748],[53.3608,29.7278],[53.4426,29.8728],[53.4619,29.8622],[53.4797,29.8843],[53.3954,29.7466],[53.4405,29.7562],[53.4136,29.7178],[53.4544,29.6675],[53.4682,29.6434],[53.5104,29.694],[53.486,29.564],[53.5666,29.6947],[53.5299,29.6894],[53.5437,29.7886],[53.5257,29.8262],[53.565,29.8357],[53.5634,29.799],[53.584,29.819],[53.5856,29.7924],[53.6144,29.7419],[53.5839,29.7271],[53.5838,29.6897],[53.5527,29.6437],[53.55,29.5952],[53.6744,29.7289],[53.6758,29.6235],[53.698,29.6169],[53.6415,29.5254],[53.6764,29.5454],[53.678,29.4824],[53.7639,29.5842],[53.663,29.4279],[53.7683,29.476],[53.6598,29.3132],[53.6702,29.2376],[53.7624,29.2567],[53.754,29.1042],[53.7321,29.0408],[53.8123,29.089],[53.7618,29.0362],[53.7006,28.7545],[53.7175,28.7519],[53.3781,28.4034],[53.2032,28.1324],[53.1087,28.077],[53.109,28.1109],[53.0167,28.0065],[53.068,28.0602],[52.7892,27.7726],[52.8257,27.7742]],"i":[[0.02300000000000324,0.014800000000001035],[-0.003900000000001569,-0.012199999999999989],[0.026899999999997704,0.014399999999998414],[0.009399999999999409,0.006799999999998363],[0.011099999999999,0.013000000000001677],[0.022800000000003706,0.018799999999998818],[0.09769999999999612,0.05840000000000245],[0.02130000000000365,0.025800000000000267],[0.10260000000000247,0.057500000000000995],[0.08100000000000307,0.09760000000000346],[0.060600000000000875,0.04189999999999827],[0.039500000000003865,0.027099999999997237],[0.017700000000004934,0.011600000000001387],[0.018000000000000682,0.011700000000001154],[0.0887999999999991,0.04329999999999856],[0.006599999999998829,-0.00019999999999953388],[0.04240000000000066,0.010300000000000864],[0.05210000000000292,0.028900000000000148],[0.02850000000000108,-0.010200000000001097],[0.03359999999999985,0.03389999999999915],[0.13109999999999644,0.0411999999999999],[0.006499999999995509,0.0045000000000001705],[0.039299999999997226,-0.01729999999999876],[0.13580000000000325,0.0688999999999993],[0.05369999999999919,0.001200000000000756],[-0.01199999999999335,0.003899999999998016],[0.011099999999999,0.002600000000001046],[0.03949999999999676,0.013799999999999812],[0.0589999999999975,0.002600000000001046],[-0.015300000000003422,0.0036999999999984823],[0.03930000000000433,0.008600000000001273],[0.006999999999997897,0.002700000000000813],[0.018700000000002603,0.00730000000000075],[0.029299999999999216,0.009600000000002495],[0.026000000000003354,0.006600000000002382],[0.044199999999996464,0.014400000000001967],[-0.004899999999999238,-0.003600000000002268],[-0.12589999999999435,-0.006199999999999761],[0.004699999999999704,0.0004000000000026205],[0.0035999999999987153,0.0016999999999995907],[0.0058000000000006935,0.004999999999999005],[0.007699999999999818,0.06429999999999936],[-0.06509999999999394,-0.023400000000002308],[0.0037999999999982492,0.0006999999999983686],[0.015399999999999636,0.03359999999999985],[-0.04509999999999792,0.03389999999999915],[0.006500000000002615,-0.002400000000001512],[0.004199999999997317,-0.0009000000000014552],[0.023500000000005627,-0.0008999999999979025],[-0.04919999999999902,0.0033999999999991815],[0.028400000000004866,-0.038699999999998624],[0.01740000000000208,-0.0017999999999993577],[0.0018000000000029104,0.0034999999999989484],[0.030899999999995487,0.012699999999998823],[-0.018000000000000682,-0.011700000000001154],[-0.03889999999999816,-0.06359999999999744],[0.017800000000001148,0.018099999999996896],[0.09570000000000078,0.02459999999999951],[0.014099999999999113,0.02699999999999747],[0.00030000000000285354,0.007799999999999585],[0.006499999999995509,0.015200000000000102],[-0.14090000000000202,-0.030999999999998806],[0.03229999999999933,0.02230000000000132],[0.1897999999999982,-0.0004000000000026205],[-0.0020000000000024443,-0.002600000000001046],[0.0027000000000043656,-0.0030999999999998806],[0.04279999999999973,-0.03219999999999956],[0.016899999999999693,0.011299999999998533],[0.004899999999999238,0.002600000000001046],[0.03860000000000241,-0.0015999999999998238],[0.0024999999999977263,-0.00009999999999976694],[0.01180000000000092,-0.00009999999999976694],[0.006199999999999761,0.0022999999999981924],[0.026799999999994384,0.0032000000000032003],[0.0788999999999973,0.00730000000000075],[0.04080000000000439,0.026199999999999335],[0.01640000000000441,-0.00420000000000087],[0.046999999999997044,-0.0017999999999993577],[-0.03340000000000032,-0.0033999999999991815],[0.02640000000000242,-0.009199999999999875],[0.02850000000000108,-0.0017999999999993577],[-0.07780000000000342,-0.024100000000000676],[0.017099999999999227,0.005300000000001859],[0.018700000000002603,-0.02740000000000009],[0.14979999999999905,0.07079999999999842],[0.004799999999995919,0.002599999999997493],[0.004200000000004422,0.0015999999999998238],[0.005299999999998306,0.002600000000001046],[-0.05030000000000001,0.011099999999999],[0.015899999999994918,-0.010200000000001097],[0.023499999999998522,-0.0017999999999993577],[0.02850000000000108,0.01249999999999929],[0.06620000000000203,0.014900000000000801],[0.14350000000000307,-0.04469999999999885],[-0.021999999999998465,0.0021999999999984254],[0.005199999999994986,-0.0002999999999993008],[0.08940000000000481,0.007500000000000284],[0.017300000000005866,0.0023999999999979593],[-0.0009999999999976694,0.019200000000001438],[0.005299999999998306,-0.006300000000003081],[0.014499999999998181,-0.02820000000000178],[0.04410000000000025,-0.022800000000000153],[0.01950000000000074,0.06929999999999836],[0.0069000000000016826,-0.002400000000001512],[0.07329999999999615,-0.015500000000002956],[0.006599999999998829,0.0016999999999995907],[0.018000000000000682,0.0017000000000031434],[0.005899999999996908,-0.01600000000000179],[0.005099999999998772,-0.02389999999999759],[0.04619999999999891,-0.019400000000000972],[0.00829999999999842,-0.0033999999999991815],[-0.0008999999999943498,0.006000000000000227],[0.06360000000000099,0.004000000000001336],[0.007999999999995566,0.0406000000000013],[0.1734000000000009,-0.09380000000000166],[-0.11229999999999762,0.04269999999999996],[-0.0013999999999967372,-0.021699999999999164],[0.08170000000000499,-0.05269999999999797],[0.00929999999999609,-0.007600000000000051],[0.00730000000000075,-0.012199999999999989],[0.004200000000004422,-0.019300000000001205],[0.024200000000000443,-0.013100000000001444],[0.04290000000000305,0.007199999999997431],[0.019799999999996487,0.01589999999999847],[0.08189999999999742,-0.04400000000000048],[0.01910000000000167,-0.008099999999998886],[0.012700000000002376,-0.012399999999999523],[0.0022999999999981924,-0.012800000000002143],[-0.001999999999995339,0.0004000000000026205],[-0.0020000000000024443,0.0016999999999995907],[-0.00730000000000075,0.005199999999998539],[-0.016199999999997772,0.010799999999999699],[-0.010599999999996612,0.007400000000000517],[-0.030700000000003058,-0.04410000000000025],[0.041100000000000136,-0.016799999999999926],[-0.02669999999999817,0.025200000000001666],[-0.03130000000000166,-0.05529999999999902],[0.19230000000000302,-0.19729999999999848],[0.06520000000000437,-0.05000000000000071],[-0.0058000000000006935,0.024200000000000443],[0.02750000000000341,-0.020199999999999108],[0.033699999999996066,-0.03459999999999752],[0.01020000000000465,-0.020699999999997942],[0.002300000000005298,-0.005400000000001626],[0.004100000000001103,-0.009900000000001796],[-0.02319999999999567,-0.05880000000000152],[-0.006499999999995509,0.004800000000003024],[-0.04459999999999553,0.03830000000000311],[-0.0045000000000001705,0.0057000000000009265],[0.08019999999999783,-0.06489999999999796],[-0.001799999999995805,-0.007200000000000983],[0.004400000000003956,-0.03640000000000043],[-0.0654000000000039,0.04460000000000264],[-0.013300000000000978,0.01740000000000208],[0.00549999999999784,-0.014299999999998647],[0.06030000000000513,-0.11460000000000292],[0.031500000000001194,-0.026300000000002655],[0.04240000000000066,0.023099999999999454],[0.0006000000000057071,-0.005399999999998073],[0.0005999999999986017,-0.027999999999998693],[-0.0006000000000057071,-0.003800000000001802],[0.00280000000000058,-0.0021999999999984254],[0.007699999999999818,-0.004999999999999005],[0.0071000000000012164,-0.0020999999999986585],[0.028700000000000614,-0.006299999999999528],[0.027999999999998693,-0.0224999999999973],[-0.0033000000000029672,0.015100000000000335],[-0.03750000000000142,0.022399999999997533],[0.017399999999994975,-0.006799999999998363],[0.0075999999999964984,-0.003700000000002035],[0.008899999999997021,-0.0036999999999984823],[-0.0020000000000024443,-0.00829999999999842],[-0.01670000000000016,0.0015000000000000568],[-0.002600000000001046,-0.00140000000000029],[-0.022800000000003706,-0.014500000000001734],[-0.001100000000000989,-0.017499999999998295],[-0.03849999999999909,0.01839999999999975],[-0.06460000000000576,-0.016100000000001558],[-0.006500000000002615,-0.0033999999999991815],[-0.0009000000000014552,-0.002400000000001512],[-0.0015000000000000568,-0.00039999999999906777],[0,0],[-0.007900000000006457,0.00140000000000029],[-0.010699999999999932,-0.00269999999999726],[-0.013600000000003831,-0.0218999999999987],[-0.0016000000000033765,-0.0020000000000024443],[-0.0075999999999964984,0],[-0.005700000000004479,-0.002700000000000813],[-0.021999999999998465,0.005400000000001626],[-0.0033999999999991815,0.0035999999999987153],[-0.0037999999999982492,0.0022999999999981924],[-0.004899999999999238,0.0008000000000016882],[-0.005099999999998772,-0.004799999999999471],[-0.015999999999998238,-0.0032000000000032003],[-0.07939999999999969,-0.10420000000000229],[-0.0005000000000023874,-0.0007000000000019213],[0.023800000000001376,-0.06480000000000175],[-0.04910000000000281,0.00549999999999784],[-0.00280000000000058,-0.0006000000000021544],[-0.008900000000004127,-0.008099999999998886],[-0.011499999999998067,-0.013799999999999812],[-0.0012000000000043087,-0.0020999999999986585],[-0.008800000000000807,-0.006499999999999062],[-0.001100000000000989,-0.0009000000000014552],[-0.011400000000001853,0.0033999999999991815],[-0.004200000000004422,0.002500000000001279],[-0.05299999999999727,-0.06319999999999837],[-0.000800000000005241,-0.0006999999999983686],[-0.017099999999999227,-0.00009999999999976694],[-0.029000000000003467,0.0259999999999998],[0.012199999999999989,-0.025600000000000733],[0.02580000000000382,-0.07730000000000103],[-0.002899999999996794,0.006999999999997897],[-0.08089999999999975,-0.045700000000000074],[-0.024299999999996658,-0.0008000000000016882],[-0.0031999999999996476,-0.0006000000000021544],[-0.018300000000003536,0.02039999999999864],[-0.002400000000001512,0.0045000000000001705],[0.005100000000005878,0.007400000000000517],[0.00039999999999906777,0.0033999999999991815],[0.0005999999999986017,0.0015999999999998238],[-0.0073999999999969646,0.020800000000001262],[-0.036999999999999034,0.007999999999999119],[0.002200000000001978,0.002500000000001279],[-0.1186000000000007,0.11599999999999966],[-0.002600000000001046,-0.005399999999998073],[-0.007199999999997431,0.023400000000002308],[0.006199999999999761,-0.017600000000001614],[-0.045000000000001705,0.013400000000000745],[-0.0011999999999972033,-0.0004999999999988347],[0.02909999999999968,0.005500000000001393],[-0.020899999999997476,0.02020000000000266],[-0.022199999999998,0.009000000000000341],[-0.015799999999998704,-0.007699999999999818],[0.040600000000004854,0.044299999999999784],[0.016999999999995907,-0.015900000000002024],[0.05530000000000257,-0.027000000000001023],[-0.013599999999996726,0.0015000000000000568],[0.04459999999999553,0.023099999999999454],[0.015100000000003888,-0.01600000000000179],[0.009499999999995623,-0.00859999999999772],[0.00039999999999906777,-0.04140000000000299],[-0.0009999999999976694,-0.033500000000000085],[-0.03020000000000067,0.021100000000000563],[-0.0018000000000029104,-0.004999999999999005],[-0.0066000000000059345,0.00689999999999813],[0.004300000000000637,0.0024999999999977263],[-0.002899999999996794,0.0030999999999998806],[-0.04310000000000258,0.033500000000000085],[-0.033299999999997,0.05489999999999995],[-0.019700000000000273,0.010200000000001097],[-0.006499999999995509,0.004699999999999704],[-0.0018000000000029104,0.001100000000000989],[-0.027700000000002944,0.015499999999999403],[-0.013800000000003365,0.016200000000001324],[-0.06320000000000192,0.006499999999999062],[0.009300000000003195,-0.012599999999999056],[0.014100000000006219,-0.034900000000000375],[-0.023400000000002308,-0.047100000000000364],[-0.01010000000000133,0.01729999999999876],[-0.0018999999999991246,0.003500000000002501],[-0.0033000000000029672,0.008899999999997021],[0.0011999999999972033,0.006299999999999528],[-0.01290000000000191,-0.017600000000001614],[-0.028999999999996362,-0.005399999999998073],[-0.00460000000000349,-0.0009000000000014552],[0.013500000000000512,-0.007600000000000051],[-0.0742000000000047,0.013799999999999812],[-0.024500000000003297,0.027300000000000324],[-0.0030000000000001137,-0.001100000000000989],[-0.028800000000003934,-0.06700000000000017],[-0.036999999999999034,0.004899999999999238],[0.0024999999999977263,-0.006500000000002615],[0.00829999999999842,0.00549999999999784],[0.0035999999999987153,-0.0005999999999986017],[0.03240000000000265,-0.08530000000000015],[0.06490000000000151,0.00980000000000203],[-0.029599999999994964,-0.013400000000000745],[-0.028599999999997294,0.036599999999999966],[-0.004399999999996851,0.013500000000000512],[-0.06609999999999872,0.009899999999998244],[-0.004199999999997317,0.0009000000000014552],[-0.021700000000002717,0.011900000000000688],[-0.022299999999994213,0.007400000000000517],[-0.014500000000005286,0.00859999999999772],[-0.038900000000005264,0.06579999999999941],[-0.039400000000000546,0.004800000000003024],[0.03810000000000002,-0.02809999999999846],[-0.0484999999999971,-0.00019999999999953388],[-0.013800000000003365,-0.0006999999999983686],[-0.01180000000000092,-0.0010000000000012221],[-0.01769999999999783,0.01180000000000092],[-0.00549999999999784,0.001300000000000523],[0.01759999999999451,-0.0009000000000014552],[-0.032200000000003115,0.011099999999999],[-0.001100000000000989,0.00019999999999953388],[0,0],[0.01570000000000249,-0.025500000000000966],[0.04270000000000351,0.0004000000000026205],[-0.0020999999999986585,-0.0008999999999979025],[-0.021599999999999397,0.0032999999999994145],[-0.000800000000005241,-0.00009999999999976694],[-0.020400000000002194,-0.04410000000000025],[-0.006500000000002615,0.03470000000000084],[0.002200000000001978,-0.043499999999998096],[-0.006599999999998829,0.006099999999999994],[-0.010500000000000398,-0.008399999999998187],[-0.002200000000001978,-0.0004999999999988347],[-0.026499999999998636,-0.026600000000001955],[0.015500000000002956,-0.0045999999999999375],[0.03130000000000166,-0.009499999999999176],[0.0013999999999967372,-0.00009999999999976694],[0.0007000000000019213,-0.0031999999999996476],[0.025699999999993395,0.04019999999999868],[-0.037700000000000955,0.02400000000000091],[-0.0027000000000043656,0.002600000000001046],[-0.0146000000000015,0.026900000000001256],[-0.02779999999999916,-0.009799999999998477],[-0.0015000000000000568,-0.0004999999999988347],[-0.007899999999999352,-0.00140000000000029],[0.0011999999999972033,0.0636999999999972],[0.09440000000000026,0.013999999999999346],[-0.02470000000000283,-0.008900000000000574],[-0.014900000000004354,-0.006300000000003081],[-0.04179999999999495,-0.0032999999999994145],[-0.018899999999995032,-0.005300000000001859],[-0.0031000000000034333,-0.003999999999997783],[-0.01379999999999626,-0.007400000000000517],[-0.057099999999998374,-0.010300000000000864],[0.006800000000005468,0.008199999999998653],[-0.017000000000003013,-0.015100000000000335],[-0.0015000000000000568,-0.00140000000000029],[-0.001100000000000989,-0.007200000000000983],[-0.0071000000000012164,-0.010099999999997777],[-0.021700000000002717,-0.012700000000002376],[-0.0018999999999991246,-0.0015999999999998238],[-0.03100000000000591,-0.013999999999999346],[-0.03550000000000608,-0.0006000000000021544],[-0.04099999999999682,-0.025199999999998113],[-0.04740000000000322,0.0015000000000000568],[-0.024200000000000443,-0.007899999999999352],[-0.011899999999997135,-0.0036999999999984823],[-0.010599999999996612,-0.004899999999999238],[-0.02470000000000283,0.006600000000002382],[-0.013100000000001444,-0.00560000000000116],[-0.011600000000001387,-0.005100000000002325],[-0.013300000000000978,-0.006700000000002149],[-0.023299999999998988,-0.017900000000000915],[0.013100000000001444,-0.0020999999999986585],[0.047100000000000364,-0.006999999999997897],[-0.0058000000000006935,-0.0029000000000003467],[-0.023099999999999454,-0.006599999999998829],[-0.03160000000000451,-0.0033999999999991815],[0.00019999999999953388,0.0022999999999981924],[-0.008899999999997021,0.007299999999997198],[-0.005899999999996908,0.005799999999997141],[-0.0058000000000006935,-0.00009999999999976694],[-0.008600000000001273,-0.002200000000001978],[0.011400000000001853,-0.029599999999998516],[0.010600000000003718,0.002700000000000813],[-0.0053000000000054115,-0.008900000000000574],[-0.01910000000000167,-0.00590000000000046],[0.006499999999995509,-0.010000000000001563],[0.002200000000001978,0.00039999999999906777],[0.009900000000001796,0.00420000000000087],[0.01950000000000074,0.0004999999999988347],[0.00280000000000058,0.0002999999999993008],[0.004300000000000637,0.003899999999998016],[0.00019999999999953388,0.0019000000000026773],[-0.013300000000000978,-0.042200000000001125],[0.019199999999997885,-0.009199999999999875],[-0.008000000000002672,-0.009399999999999409],[-0.04809999999999803,-0.02839999999999776],[-0.007899999999999352,-0.005000000000002558],[0.04639999999999844,-0.09580000000000055],[-0.018700000000002603,-0.013400000000000745],[-0.0009999999999976694,-0.0021999999999984254],[-0.004699999999999704,-0.008600000000001273],[-0.010699999999999932,-0.012400000000003075],[-0.00460000000000349,0.0002999999999993008],[-0.006399999999999295,-0.008699999999997488],[-0.016500000000000625,-0.02680000000000149],[0.00560000000000116,0.012399999999999523],[-0.022600000000004172,0.0365000000000002],[-0.009900000000001796,-0.00840000000000174],[-0.005000000000002558,-0.0036999999999984823],[-0.00730000000000075,-0.011999999999996902],[0.01180000000000092,0.003700000000002035],[0.0660000000000025,0.0032999999999994145],[0.0035999999999987153,0.003700000000002035],[0.0036000000000058208,-0.0007999999999981355],[0.006799999999998363,0.0004999999999988347],[0.027999999999998693,0.01699999999999946],[-0.006400000000006401,-0.011400000000001853],[-0.09199999999999875,-0.0005999999999986017],[0.003500000000002501,-0.0034999999999989484],[-0.03439999999999799,-0.02680000000000149],[-0.022500000000000853,-0.02179999999999893],[-0.0009000000000014552,-0.0015000000000000568],[-0.040600000000004854,-0.039100000000001245],[-0.00280000000000058,-0.0029000000000003467],[-0.009900000000001796,-0.01249999999999929],[-0.0075999999999964984,-0.005299999999998306],[-0.0024999999999977263,-0.0010000000000012221],[-0.041499999999999204,-0.01389999999999958],[-0.01099999999999568,0.008800000000000807],[0.0005999999999986017,-0.009599999999998943],[-0.02049999999999841,-0.004900000000002791],[-0.028099999999994907,-0.018899999999998585],[-0.03999999999999915,-0.002500000000001279],[0.011699999999997601,-0.035199999999999676],[-0.0058000000000006935,-0.024799999999999045],[-0.02729999999999677,-0.021299999999996544],[0.0005999999999986017,-0.004999999999999005],[0.001999999999995339,-0.0036999999999984823],[-0.003500000000002501,-0.0006999999999983686],[-0.034300000000001774,-0.06180000000000163],[0.009099999999996555,0.0021999999999984254],[-0.006700000000002149,-0.0045999999999999375],[-0.06689999999999685,0.00969999999999871],[-0.0025000000000048317,0.0004999999999988347],[-0.042300000000004445,0.01290000000000191],[-0.04919999999999902,-0.05630000000000024],[0.006300000000003081,0.00140000000000029],[-0.0081999999999951,-0.006599999999998829],[-0.016999999999995907,-0.0254000000000012],[-0.02179999999999893,0.024799999999999045],[-0.024500000000003297,-0.02909999999999968],[-0.0058000000000006935,-0.004000000000001336],[-0.014800000000001035,-0.008800000000000807],[-0.04889999999999617,-0.016200000000001324],[-0.00010000000000331966,0.01950000000000074],[-0.022599999999997067,0.016600000000000392],[-0.014099999999999113,-0.012299999999999756],[-0.009000000000000341,0.004199999999997317],[-0.002899999999996794,-0.00039999999999906777],[-0.01120000000000232,0.008900000000000574],[0.001100000000000989,0.012000000000000455],[0.0005000000000023874,0.0029000000000003467],[-0.02499999999999858,0.0020000000000024443],[-0.003500000000002501,-0.0015000000000000568],[-0.024799999999999045,-0.023399999999998755],[-0.0018999999999991246,0],[-0.011400000000001853,0.00140000000000029],[-0.02209999999999468,0.011699999999997601],[-0.013500000000000512,-0.027599999999999625],[0,0.005500000000001393],[-0.007500000000000284,0.0069000000000016826],[-0.023699999999998056,-0.015900000000002024],[-0.03860000000000241,-0.013700000000000045],[-0.011399999999994748,0.003900000000001569],[-0.036899999999995714,-0.05829999999999913],[0.00280000000000058,0.02230000000000132],[0.0648999999999944,0.06120000000000303],[-0.004100000000001103,-0.0017999999999993577],[-0.00730000000000075,-0.0016999999999995907],[-0.04079999999999728,0.00560000000000116],[0.024300000000003763,0.04260000000000019],[-0.0625,0.06520000000000081],[-0.010799999999996146,-0.016799999999999926],[-0.006300000000003081,-0.00009999999999976694],[-0.001300000000000523,0.0004999999999988347],[0.015899999999994918,0.040800000000000836],[-0.015099999999996783,-0.0032999999999994145],[0.009000000000000341,0.012699999999998823],[-0.03289999999999793,0.04779999999999873],[0.006000000000000227,0.06540000000000035],[-0.00989999999999469,-0.03950000000000031],[0.011100000000006105,0.033200000000000784],[-0.0951999999999984,-0.05710000000000193],[0.0012000000000043087,-0.00590000000000046],[0.02230000000000132,-0.06619999999999848],[-0.025199999999998113,-0.03259999999999863],[-0.0011999999999972033,0.001300000000000523],[-0.005900000000004013,0.00560000000000116],[-0.0017000000000066962,0.001200000000000756],[-0.00829999999999842,0.00140000000000029],[0.09279999999999688,0.1034000000000006],[0.017600000000001614,0.04189999999999827],[0.005500000000004945,0.01600000000000179],[0.004199999999997317,0.01010000000000133],[0.06440000000000623,0.06970000000000098],[-0.047100000000000364,-0.025199999999998113],[0.006499999999995509,0.01630000000000109],[0.0007999999999981355,0.0030999999999998806],[-0.00730000000000075,0.01670000000000016],[-0.015200000000000102,0.007600000000000051],[-0.042499999999996874,-0.043899999999997164],[-0.047100000000000364,0.017900000000000915],[0.03380000000000649,0.05139999999999745],[-0.035100000000007014,-0.01640000000000086],[0.018900000000002137,0.06800000000000139],[-0.004100000000001103,0.0058000000000006935],[-0.013100000000001444,-0.002799999999997027],[-0.1092000000000013,-0.04229999999999734],[-0.0025000000000048317,0.0008999999999979025],[-0.008699999999997488,0.027200000000000557],[0.015999999999998238,0.024799999999999045],[0.11220000000000141,0.10079999999999956],[-0.00560000000000116,0.0009000000000014552],[0.11959999999999837,0.11689999999999756],[0.06199999999999761,0.05460000000000065],[0.007699999999999818,0.0018999999999991246],[0.030699999999995953,0.010600000000000165],[-0.023400000000002308,0.00980000000000203],[-0.009699999999995157,-0.0016999999999995907],[0.006099999999996442,0.022400000000001086],[-0.012199999999999989,-0.0006000000000021544]],"o":[[0.0040000000000048885,0.012199999999999989],[-0.0257000000000005,-0.016600000000000392],[-0.004400000000003956,-0.002300000000001745],[-0.009399999999999409,-0.006800000000001916],[-0.012599999999999056,-0.014699999999997715],[-0.08570000000000277,-0.07140000000000057],[0.08269999999999555,0.08550000000000324],[-0.004699999999999704,-0.00560000000000116],[-0.06510000000000105,-0.035899999999998045],[0.10520000000000351,0.012700000000002376],[-0.010500000000000398,-0.007500000000000284],[-0.012999999999998124,-0.009100000000000108],[-0.012099999999996669,-0.008099999999998886],[-0.0840999999999994,-0.05469999999999686],[0.018799999999998818,0.08519999999999683],[-0.029199999999995896,0.004400000000000404],[-0.05109999999999815,-0.03020000000000067],[0.04749999999999943,0.015200000000000102],[0.033200000000000784,-0.04970000000000141],[-0.006700000000002149,-0.0071000000000012164],[-0.014200000000002433,-0.004299999999997084],[-0.0038000000000053547,-0.002600000000001046],[-0.014299999999998647,0.006700000000002149],[0.07780000000000342,-0.03160000000000096],[0.012000000000000455,-0.003999999999997783],[-0.05409999999999826,0.0032999999999994145],[-0.04459999999999553,-0.010299999999997311],[-0.04630000000000223,-0.01600000000000179],[0.015500000000002956,-0.0036999999999984823],[-0.03800000000000381,-0.009100000000000108],[0.07790000000000674,0.06950000000000145],[-0.011100000000006105,-0.004699999999999704],[-0.0018999999999991246,-0.0008999999999979025],[-0.06119999999999948,-0.01980000000000004],[-0.0022999999999981924,-0.0006999999999983686],[-0.14030000000000342,-0.044599999999999085],[0.006399999999999295,0.004699999999999704],[-0.04229999999999734,-0.002700000000000813],[-0.004100000000001103,-0.0004999999999988347],[-0.031999999999996476,-0.01770000000000138],[-0.005099999999998772,-0.004300000000000637],[-0.052599999999998204,0.0472999999999999],[0.00730000000000075,0.013500000000000512],[-0.09629999999999939,-0.01980000000000004],[-0.00829999999999842,-0.017500000000001847],[-0.0887999999999991,-0.02149999999999963],[-0.009699999999995157,0.0035999999999987153],[-0.006100000000003547,0.001300000000000523],[-0.0037999999999982492,0.00009999999999976694],[-0.06350000000000477,-0.007699999999999818],[-0.02999999999999403,-0.08709999999999951],[-0.04649999999999466,0.004799999999999471],[-0.013599999999996726,-0.022500000000000853],[0.006999999999997897,0.04689999999999728],[0.060000000000002274,0.038399999999999324],[-0.016999999999995907,-0.018200000000000216],[-0.0409000000000006,0.032399999999999096],[-0.012499999999995737,-0.03359999999999985],[-0.00829999999999842,-0.015900000000002024],[-0.00009999999999621423,-0.009599999999998943],[-0.014500000000005286,-0.03359999999999985],[-0.03979999999999961,-0.0045999999999999375],[-0.02130000000000365,-0.01419999999999888],[-0.006199999999999761,0.02880000000000038],[0.002600000000001046,0.0034999999999989484],[-0.009199999999999875,0.009199999999999875],[0.01759999999999451,-0.03780000000000072],[-0.00460000000000349,-0.0031999999999996476],[-0.03109999999999502,-0.015399999999999636],[-0.043900000000000716,0.0016999999999995907],[-0.019300000000001205,0.0015000000000000568],[-0.018000000000000682,0],[-0.001799999999995805,-0.0008000000000016882],[-0.004699999999999704,-0.00039999999999906777],[-0.09539999999999793,-0.00840000000000174],[-0.058900000000001285,0.04410000000000025],[-0.0058000000000006935,0.0015999999999998238],[0.03410000000000224,0.002700000000000813],[-0.03179999999999694,0.008099999999998886],[-0.012899999999994805,0.0045000000000001705],[-0.006000000000000227,0.00030000000000285354],[0.003900000000001569,-0.02500000000000213],[-0.002600000000001046,-0.0008999999999979025],[-0.0045000000000001705,0.006999999999997897],[-0.004899999999999238,-0.002300000000001745],[-0.0033000000000029672,-0.0018000000000029104],[-0.004300000000000637,-0.0017999999999993577],[-0.027000000000001023,-0.013500000000000512],[-0.015999999999998238,0.00999999999999801],[0.011899999999997135,-0.0508000000000024],[-0.15220000000000056,0.012100000000000222],[-0.04630000000000223,-0.019700000000000273],[-0.006099999999996442,-0.001200000000000756],[0.02190000000000225,-0.002400000000001512],[-0.004800000000003024,0.04859999999999687],[-0.05850000000000222,0.004100000000001103],[-0.007999999999995566,-0.0005999999999986017],[-0.07169999999999987,-0.009900000000001796],[0.00010000000000331966,-0.010099999999997777],[-0.020500000000005514,0.024499999999999744],[-0.00549999999999784,0.008900000000000574],[-0.05180000000000007,0.02499999999999858],[0.003500000000002501,0.07229999999999848],[-0.0823999999999998,0.030300000000000438],[-0.016200000000004877,0.0033999999999991815],[-0.003900000000001569,-0.001100000000000989],[-0.025299999999994327,-0.0024999999999977263],[-0.00560000000000116,0.01529999999999987],[-0.04660000000000508,0.018200000000000216],[-0.01910000000000167,0.008200000000002206],[-0.0034999999999953957,0.00140000000000029],[0.0014000000000038426,-0.015100000000000335],[-0.012399999999999523,-0.0009000000000014552],[-0.1833999999999989,0.07660000000000267],[0.11469999999999914,-0.021399999999999864],[0.015100000000003888,-0.00590000000000046],[-0.09009999999999962,0.04129999999999967],[-0.0025999999999939405,0.0016999999999995907],[-0.017300000000005866,0.01389999999999958],[-0.0009999999999976694,0.002500000000001279],[-0.010499999999993292,0.04929999999999879],[-0.019199999999997885,0.009899999999998244],[-0.046599999999997976,-0.007900000000002905],[-0.09710000000000463,0.023399999999998755],[-0.0015000000000000568,0.0008000000000016882],[-0.033200000000000784,0.014099999999999113],[-0.01379999999999626,0.013300000000000978],[-0.00030000000000285354,0.0016999999999995907],[0.029800000000001603,-0.005599999999997607],[0.007699999999999818,-0.006099999999999994],[0.011899999999997135,-0.008600000000001273],[0.01120000000000232,-0.007400000000000517],[0.003700000000002035,-0.00280000000000058],[0.006399999999999295,0.011799999999997368],[0.025900000000000034,-0.025500000000000966],[-0.05270000000000152,0.053000000000000824],[-0.2161000000000044,0.15790000000000148],[-0.03159999999999741,0.03920000000000101],[0.0053000000000054115,-0.024100000000000676],[-0.024900000000002365,0.03640000000000043],[-0.0033999999999991815,0.002300000000001745],[-0.029699999999998283,0.030700000000003058],[-0.008699999999997488,0.01740000000000208],[-0.001799999999995805,0.004100000000001103],[-0.012899999999994805,0.030999999999998806],[0.006400000000006401,-0.004899999999999238],[-0.017800000000001148,0.03520000000000323],[0.007600000000003604,-0.006299999999999528],[0.18180000000000263,-0.21999999999999886],[0.002400000000001512,0.03540000000000276],[0.0018999999999991246,0.009399999999999409],[-0.0011999999999972033,0.005300000000001859],[0.013500000000000512,-0.010099999999997777],[0.014099999999999113,0.06940000000000168],[-0.022200000000005105,0.05379999999999896],[-0.04459999999999553,0.08840000000000003],[-0.018300000000003536,0.014799999999997482],[-0.02269999999999328,0.03459999999999752],[-0.0007999999999981355,0.004899999999999238],[0,0.0033999999999991815],[0.000499999999995282,0.006999999999997897],[-0.0021999999999948727,0.001300000000000523],[-0.009000000000000341,0.004799999999999471],[-0.011399999999994748,0.002300000000001745],[-0.01020000000000465,0.04239999999999711],[0.0075999999999964984,-0.005399999999998073],[-0.03710000000000235,-0.00560000000000116],[-0.021000000000000796,0.014999999999997016],[-0.0045000000000001705,0.0019000000000026773],[-0.0015000000000000568,0.00039999999999906777],[-0.016399999999997306,0.006700000000002149],[0.004300000000000637,0.022800000000000153],[0.002300000000005298,-0.00009999999999976694],[0.026499999999998636,0.010400000000000631],[0.0007999999999981355,0.017499999999998295],[0.03999999999999915,-0.055699999999998084],[-0.04010000000000247,0.08489999999999753],[0.027000000000001023,0.00689999999999813],[0.0227999999999966,0.012199999999999989],[0.001100000000000989,0.0019999999999988916],[0,0],[0.014199999999995327,0.0033999999999991815],[0.013299999999993872,-0.002500000000001279],[0.0022999999999981924,-0.0005999999999986017],[0.013599999999996726,0.02190000000000225],[0.008899999999997021,0.010699999999999932],[0.003500000000002501,0],[0.005699999999997374,0.0024999999999977263],[0.01630000000000109,-0.00409999999999755],[0.0020000000000024443,-0.002600000000001046],[0.005099999999998772,-0.003500000000002501],[0.006799999999998363,-0.001100000000000989],[0.0031999999999996476,0.004100000000001103],[0.025900000000000034,0.006699999999998596],[0.0005000000000023874,0.0006999999999983686],[0.015900000000002024,0.015799999999998704],[0.06850000000000023,-0.11310000000000286],[0.018499999999995964,-0.0018000000000029104],[0.019599999999996953,0.0113999999999983],[0.004899999999999238,0.004400000000000404],[0.005700000000004479,0.0070000000000014495],[0.009099999999996555,0.019999999999999574],[0.0058000000000006935,0.004300000000000637],[0.0020999999999986585,0.0015999999999998238],[0.008699999999997488,-0.002700000000000813],[0.02459999999999951,-0.014299999999998647],[0.003200000000006753,0.003800000000001802],[0.016099999999994452,0.015100000000000335],[0.029299999999999216,0.00039999999999906777],[0.009699999999995157,0.029599999999998516],[0.03529999999999944,-0.0724000000000018],[0.006000000000000227,-0.025099999999998346],[0.0015000000000000568,-0.004000000000001336],[0.01010000000000133,0.0057000000000009265],[0.010600000000003718,-0.050499999999999545],[0.049500000000001876,0.01670000000000016],[0.017999999999993577,-0.02149999999999963],[0.008699999999997488,-0.016500000000000625],[-0.005099999999998772,-0.007600000000000051],[-0.002400000000001512,-0.013999999999999346],[-0.007199999999997431,-0.019700000000000273],[0.013200000000004763,0.009900000000001796],[0.04290000000000305,-0.008800000000000807],[0.08719999999999573,-0.1261999999999972],[0.025099999999994793,0.02909999999999968],[0.010799999999996146,0.03089999999999904],[-0.006499999999995509,0.017600000000001614],[0.05089999999999861,0.012699999999998823],[0.014299999999998647,-0.00420000000000087],[0.022700000000000387,0.0029000000000003467],[0.04269999999999641,-0.007699999999999818],[0.001100000000000989,-0.0009999999999976694],[0.01010000000000133,-0.004100000000001103],[0.006399999999999295,0.0032999999999994145],[-0.02729999999999677,0.06050000000000111],[-0.002400000000001512,0.002600000000001046],[0.04800000000000182,0.03810000000000002],[0.02760000000000673,-0.0033999999999991815],[0.0373999999999981,0.030000000000001137],[-0.016399999999997306,0.017399999999998528],[-0.025399999999997647,0.02360000000000184],[-0.043199999999998795,-0.08689999999999998],[0.029800000000001603,-0.0224999999999973],[0.0016999999999995907,0.005000000000002558],[0.006499999999995509,-0.00689999999999813],[-0.004200000000004422,-0.002500000000001279],[0.05710000000000548,-0.010200000000001097],[0.03820000000000334,-0.03819999999999979],[0.006599999999998829,-0.005000000000002558],[0.010900000000006571,-0.017500000000001847],[0.059499999999999886,0.03610000000000113],[0.01839999999999975,-0.013400000000000745],[0.024500000000003297,-0.014299999999998647],[0.0005999999999986017,-0.00019999999999953388],[0.0045000000000001705,-0.00560000000000116],[-0.009599999999998943,0.012599999999999056],[0.009900000000001796,-0.01630000000000109],[-0.008499999999997954,0.021000000000000796],[0.024699999999995725,-0.03569999999999851],[0.001300000000000523,-0.002700000000000813],[0.0015000000000000568,-0.00269999999999726],[0.0018999999999991246,-0.005300000000001859],[-0.0007000000000019213,-0.0045999999999999375],[-0.018300000000003536,-0.0007000000000019213],[0.003700000000002035,0.0007000000000019213],[0.04189999999999827,0.008199999999998653],[0.06839999999999691,-0.005299999999998306],[0.019799999999996487,-0.028400000000001313],[0.05180000000000007,-0.05649999999999977],[0.022599999999997067,0.009299999999999642],[0.019199999999997885,-0.02009999999999934],[-0.0023999999999944066,0.006399999999999295],[0.05210000000000292,0.023799999999997823],[-0.023900000000004695,-0.014099999999999113],[-0.00560000000000116,0.0010000000000012221],[-0.04279999999999973,-0.036000000000001364],[0.03630000000000422,-0.009799999999998477],[0.003500000000002501,0.0017999999999993577],[0.013700000000000045,-0.017500000000001847],[0.01190000000000424,-0.04449999999999932],[0.004300000000000637,-0.0010000000000012221],[0.013100000000001444,-0.00280000000000058],[-0.04200000000000159,0.03829999999999956],[0.03470000000000084,-0.01180000000000092],[0.05639999999999645,-0.033500000000000085],[0.005599999999994054,0.05910000000000082],[0.03049999999999642,-0.003899999999998016],[0.051400000000001,-0.00829999999999842],[0.008000000000002672,0],[0.001300000000000523,0.00019999999999953388],[0.09740000000000038,0.009199999999999875],[0.009900000000001796,-0.006499999999999062],[-0.05729999999999791,-0.0008999999999979025],[0.012199999999999989,-0.039400000000000546],[0.001100000000000989,-0.0004000000000026205],[0.00009999999999621423,0],[0.012300000000003308,-0.002300000000001745],[-0.004199999999997317,0.006699999999998596],[0.01180000000000092,0.00420000000000087],[0.024900000000002365,0.010500000000000398],[0.004899999999999238,-0.0008000000000016882],[0.01939999999999742,-0.0036999999999984823],[0.034900000000000375,-0.05390000000000228],[0.0058000000000006935,-0.028299999999997993],[0.0009000000000014552,-0.0045000000000001705],[0.0146000000000015,-0.013799999999999812],[0.0016999999999995907,0.0016999999999995907],[0.005899999999996908,0.001100000000000989],[-0.01570000000000249,0.0045000000000001705],[0.09150000000000347,0.007299999999997198],[-0.001599999999996271,0],[-0.024299999999996658,0.0071000000000012164],[-0.0024999999999977263,0.01150000000000162],[-0.003700000000002035,-0.0058000000000006935],[0.006699999999995043,-0.00420000000000087],[0.018499999999995964,-0.01839999999999975],[0.022500000000000853,0.028900000000000148],[0.012700000000002376,0.0045000000000001705],[0.02319999999999567,0.007900000000002905],[0.004399999999996851,0.0007999999999981355],[0.14819999999999567,0.06649999999999778],[0.027200000000000557,0.0259999999999998],[0.009000000000000341,0.0031999999999996476],[0.030400000000000205,0.012299999999999756],[-0.023299999999998988,-0.012199999999999989],[0.018900000000002137,0.005399999999998073],[0.0037999999999982492,0.004000000000001336],[-0.06360000000000099,-0.0254000000000012],[-0.006700000000002149,-0.008199999999998653],[0.030999999999998806,0.016099999999998005],[0.002600000000001046,0.002400000000001512],